{"schemaVersion": 1, "modelType": "StandardScaler + MLPClassifier", "trainedAt": "2026-04-20T02:23:52.862848+00:00", "datasetUrl": "https://huggingface.co/datasets/sid220/asl-now-fingerspelling", "datasetLicense": "MIT", "featureCount": 105, "classLabels": ["A", "B", "C", "D", "E", "F", "G", "H", "I", "J", "K", "L", "M", "N", "O", "P", "Q", "R", "S", "T", "U", "V", "W", "X", "Y", "Z"], "scaler": {"mean": [0.0, 0.0, 0.0, 0.03600260954252761, -0.18527391841677177, -0.0846859918247225, 0.06089595633615984, -0.46335218705199194, -0.14683908550519073, 0.055601403911726376, -0.6533204539809284, -0.21410792283210298, 0.035030328936210234, -0.7508440734153777, -0.2731504872374882, 0.05477384373008898, -0.8925426678005952, -0.08446103165037666, 0.05003395302311582, -1.1174324546323668, -0.2118340415273865, 0.03705313298138773, -1.1114303998676767, -0.2899750592958428, 0.02497242821749451, -1.0970405768672133, -0.331080908231777, 0.014122397951779391, -0.8755356073980272, -0.11169897659397562, 0.010628004806448627, -1.022317590170579, -0.253526121999659, 0.006766450826281858, -0.9086542130712735, -0.30194529951380816, 0.0045263334141333045, -0.8609876703316461, -0.3092636504681934, -0.022277179961751766, -0.7798070100335662, -0.15473696338117757, -0.026359656585955158, -0.8455667733485627, -0.29781862938274795, -0.01420930412334993, -0.6752269575115155, -0.292101390619392, -0.0064236108139496245, -0.5885009308257866, -0.25391923067804595, -0.0568516536293976, -0.6381015161741179, -0.20617630095003214, -0.056733928329225455, -0.6987646765053491, -0.30192593048708927, -0.040323723458613195, -0.6078509580524402, -0.28684059530878203, -0.030140547371717594, -0.5622983814115274, -0.2531097469782544, 0.035030328936210234, -0.7508440734153777, -0.2731504872374882, 0.02497242821749451, -1.0970405768672133, -0.331080908231777, 0.0045263334141333045, -0.8609876703316461, -0.3092636504681934, -0.0064236108139496245, -0.5885009308257866, -0.25391923067804595, -0.030140547371717594, -0.5622983814115274, -0.2531097469782544, 0.0, 0.34677000837708727, 0.6968632906248682, 0.9435619679428551, 1.0952243360495433, 0.9971306618512336, 1.3153860304124754, 1.3844018503461668, 1.4301389376789597, 0.9541633384901833, 1.2354853367544885, 1.1865973200421593, 1.1635269383485627, 0.8762886109867521, 1.080194367974095, 0.9188700045301404, 0.8019673217930107, 0.8010784547529511, 0.9647728322966976, 0.8832780479883923, 0.8152851160004772, 0.6481076303690848, 0.6116213580788383, 0.4800109989330994, 0.7811470360371839, 0.43260448209441327, 0.29307517996611115], "scale": [1.0, 1.0, 1.0, 0.24379063745837684, 0.12306597752227377, 0.07850880988907441, 0.42931953040642323, 0.23789906557867524, 0.11239885227752686, 0.5258335679612188, 0.3740444705002857, 0.13809789129601044, 0.5804412756418889, 0.4892088783053342, 0.1676808574183626, 0.3639137119399165, 0.18070084160555389, 0.15103015585232177, 0.5143399345367509, 0.38377738999326966, 0.1874056259420222, 0.5882457603575415, 0.5273955991717504, 0.20468877427169146, 0.6448416372560711, 0.6675767656883944, 0.21744933981631348, 0.27608166496368425, 0.19582627613072082, 0.14384927249532034, 0.431915031962095, 0.4894199480263243, 0.17702069698223766, 0.4613642901854809, 0.6268769299195412, 0.17055213622119522, 0.4799588627461306, 0.7401142739009992, 0.17125968512444387, 0.25640956292832034, 0.24242698557719675, 0.1395061013883048, 0.36691283572713257, 0.4982346641047515, 0.15510182069311726, 0.3404990165897778, 0.5181865182102435, 0.13427204118363625, 0.31994917545437435, 0.5314510002880418, 0.13359323397056933, 0.30526255343804515, 0.2921857571530335, 0.14472347764173363, 0.3597353348058867, 0.484422865544553, 0.15340544538402226, 0.3518586938816416, 0.5215534838264452, 0.14395058160492957, 0.3542106106439435, 0.5444771556144197, 0.144984981876201, 0.5804412756418889, 0.4892088783053342, 0.1676808574183626, 0.6448416372560711, 0.6675767656883944, 0.21744933981631348, 0.4799588627461306, 0.7401142739009992, 0.17125968512444387, 0.31994917545437435, 0.5314510002880418, 0.13359323397056933, 0.3542106106439435, 0.5444771556144197, 0.144984981876201, 1.0, 0.05733789503410188, 0.08883447833101056, 0.1446837297872665, 0.2108152270529688, 0.019818898475013193, 0.11288694003475486, 0.26503623733877657, 0.42095430489178504, 0.06381736557496646, 0.20128709442030848, 0.37917773200639615, 0.539100040349568, 0.0929284851785216, 0.2108872860324117, 0.3156268598322546, 0.4127381634726684, 0.10339371384900876, 0.1986748996772488, 0.29958396791841935, 0.39925408028690423, 0.3603954390179784, 0.33220780500939673, 0.39758741437187944, 0.438062610150301, 0.4508082002540331, 0.31281165776050973]}, "network": {"activation": "relu", "outputActivation": "softmax", "hiddenLayerSizes": [256, 128], "layers": [{"kernel": [[-2.7639430999134756e-27, 2.6564047566277835e-13, 2.6278459651048505e-23, -4.511382603406208e-29, -4.965723021491751e-17, -4.979597790113154e-17, -1.5503225234308277e-13, 4.979393705222639e-16, -2.779815117879216e-28, -9.26734534557804e-24, -1.3538941348930375e-12, 8.056018220609299e-13, 1.1731706951530862e-17, 6.023457707791518e-20, -1.1269670316602504e-18, -7.924166446938637e-19, -1.2468476573038806e-24, -1.3519193598970078e-30, 4.389127785936223e-29, 1.0449292624531765e-23, -1.5704342693321308e-27, -2.882414386485072e-16, 8.912985598329226e-24, -1.0555069730360241e-26, -7.172338025947159e-30, -4.5945122031299066e-20, 1.3548852058133964e-19, -6.493078400902327e-32, 2.383482092411254e-28, -3.1466090115605706e-13, -1.113745405034037e-27, -7.736566079705446e-18, -9.972591095264888e-14, 2.378992813098084e-13, 6.337519535562857e-13, -1.9118083623927996e-20, -1.3233788450177634e-24, -1.0338107173906957e-14, 1.0899061146236181e-24, 1.8351030164302383e-29, -1.4457756369810427e-15, -9.403418643140331e-32, -6.330155911926496e-13, 1.733579789272266e-14, -3.130639794828049e-22, -1.2268059353667058e-25, -1.5132767557874674e-24, -7.587963856881243e-31, 8.199757493005291e-30, -5.516110470807881e-19, 7.911512336821145e-13, -1.0562382959550329e-20, 1.332306633609241e-13, 5.809534840310919e-15, 1.2615417451860084e-29, 4.194633331450403e-14, -2.0301279578595808e-14, 1.2057888735664956e-19, -3.383035081893019e-13, -1.6382479013219278e-25, 1.5338488112056947e-27, 1.195435229217546e-23, 6.947672203245543e-18, -7.063841738632524e-27, 3.093017012769571e-23, 6.375779894347033e-30, -2.5011339643319196e-16, -1.3319939034537929e-19, -5.343210946179307e-14, 2.0100050069738343e-12, -5.783050048729755e-21, 1.3542664064509863e-19, -2.9701313831714995e-12, 5.992841246327015e-19, -7.368365254625636e-24, -9.021687840307303e-24, -4.553097365626572e-21, -5.5276058522515193e-14, -1.0279602466052501e-26, -2.4448821161730488e-15, 3.7138672160391944e-16, 1.1722534587373148e-27, 6.95052619392125e-26, -1.0974024023385773e-13, -1.5684244607356519e-24, -1.7316022843200043e-25, -3.5304935570301906e-24, 1.2642557524491466e-26, 3.155011965876655e-15, 1.4237572908179947e-30, -1.784669099058112e-15, -1.931322090939848e-23, 1.0480603896696682e-21, -2.4207005623999337e-29, -4.204909996843949e-21, -1.1980408518608157e-31, -1.1329151430271708e-30, 3.235257035092157e-29, -1.0421686114107534e-12, -4.686068121183015e-15, -7.476370840284307e-13, 1.2351174701472999e-26, -1.2511093247057223e-24, 1.405393561162214e-31, 1.5254346801285945e-14, -9.353348656095458e-22, -2.481689843626689e-28, 1.2112789862130882e-21, 4.4730286359091646e-21, -4.5349705434147024e-14, 1.3154594332436805e-23, -2.6669890340233544e-17, 7.086853106286039e-14, -2.967204874884457e-20, 1.0353690026127275e-26, 8.118526304742317e-16, -1.2394743858517428e-19, -3.3315511020310025e-19, 4.85703441877506e-15, 3.7854460155332295e-30, -5.276523264165574e-20, 6.412785040539939e-15, -8.306829512920738e-25, -3.940916995337757e-15, 5.542745669553292e-21, 2.9486464038300735e-29, 1.0891432784162454e-18, 2.946860015368001e-16, -2.761767936322143e-12, 1.1390560733559045e-31, -1.2567943397862164e-28, 1.704093395323238e-20, -1.7437441767816487e-15, 1.2225136308456005e-25, 1.6491783304767168e-13, -3.161347328325909e-25, -5.765634861316941e-31, -2.720841481063944e-24, -1.2335237750121964e-26, 8.936783550464839e-13, 5.286834227737478e-13, -7.536065992280226e-22, -4.956707705922353e-32, -6.615900679966971e-26, 2.346297729931482e-23, -5.492055987176285e-13, -1.3656426998582324e-27, 4.803463415482402e-32, -2.3270591967215486e-13, 3.329596216583302e-23, 1.6054806247829666e-14, -1.0867715870122386e-21, -1.671450608971526e-16, -1.1873114969821677e-31, 1.884189970572496e-12, -1.2318735252153976e-21, 2.9834983559925037e-26, 9.321857547074218e-22, -7.990467719581677e-22, -1.5214848957309126e-23, -9.261192698482089e-27, 9.346543094064818e-27, 1.0462597857800355e-26, 1.1943650004509434e-30, -1.7832945559207855e-14, 1.7168568140092828e-17, -5.335547769468549e-25, -3.388093073647272e-19, -4.3905211090147886e-13, 2.5043547922490564e-28, 3.8009028094424783e-25, -1.6748635374474262e-12, 6.694814569550915e-32, 7.644558572511976e-21, 1.4178414274834936e-27, -4.330264907987876e-18, 1.656012555178587e-24, 1.6256498864996244e-27, 1.1177868468287968e-13, -3.496027623879804e-16, 1.009974465723236e-25, -2.982075971584562e-15, 5.0784379447023695e-14, 1.3695465138811536e-15, -3.5605568628459366e-22, -1.0916560613727304e-25, 9.153142339247683e-19, -2.0664919336351977e-30, -1.2299747960660336e-30, -1.2275055369674643e-21, -1.4523303013460393e-14, 6.997841057052828e-15, 8.946930443710139e-15, 1.0086123711484606e-26, 1.156662584728987e-25, 2.934974793082109e-26, -2.721520920348831e-23, 6.940913607588544e-15, 3.122498153360947e-15, -2.3082364302370208e-20, 9.505535321061714e-27, -2.7656273252999877e-14, -2.5356860082313952e-17, 7.758743301561783e-15, -9.615028519303094e-28, -2.4618740296182768e-12, -7.743417448287833e-15, -1.2444681512040942e-25, -3.0402826287972085e-12, -2.806301695198338e-17, 7.916305358179749e-30, 1.6586683460305794e-24, -3.8443908175375645e-26, 1.1792911057244416e-20, -1.7044155762141008e-23, -7.169679649989732e-22, -1.5948071080188503e-25, 6.303455864640602e-22, -2.1217093677490762e-26, 8.9502096630611e-17, -8.95075575439424e-26, -4.396652527243264e-29, -1.3924439274972381e-14, -9.325830573330771e-27, -8.09339344538602e-23, -1.2240489576082635e-21, 9.562496705489473e-13, 1.0266270648799127e-27, 4.6629706348071046e-15, 8.197430553904544e-27, -1.0956446467245544e-19, 4.7151225531987984e-32, 1.4607295499421593e-29, -1.3591523873195558e-31, 1.1155082480061819e-19, -3.3455206367466516e-23, 3.1167516585887096e-23, -1.1067619574826836e-12, 3.2816742404871016e-28, -2.754410982119037e-18, 1.4151882589414093e-13, 3.2181690545162396e-13, 2.5783009424378436e-14, -6.881929019226912e-27, -1.7777923869411959e-12, 6.469942376279733e-14, 3.597229404240572e-29, 6.71416508252289e-13, 5.653260704177914e-13, 1.3433164033773988e-16, 5.557267579429551e-24, 1.5936241150872235e-27, 1.1009415346487686e-16, -9.55269166131498e-25, -8.96598107218532e-18, -6.956694062066091e-30], [1.0774652745675413e-13, 1.1848182734537564e-24, -4.2257714910404754e-29, -1.073063472322851e-14, -1.5874192130722585e-27, 2.3687362166750747e-12, -2.7190758771117906e-16, -5.132816377003323e-31, 1.3735790088888414e-15, 2.911731850302213e-22, 9.145930748659473e-25, -2.2310989567344618e-24, -1.149880433771265e-26, 6.718494118350899e-24, 2.3357286826236538e-20, 6.339419431845589e-20, 5.417029773694142e-16, 2.2979120631422066e-14, 9.633817705666271e-32, 2.4745235521753467e-32, -1.2984724530661657e-19, -2.345131565433421e-26, -1.7919430546011256e-24, -1.160893609796098e-19, 3.959159862483269e-15, 1.2085554113090675e-25, -1.9509483540658355e-27, -1.3612396652657583e-14, 3.7072635573220864e-29, -5.795998119144937e-13, -3.985980887841744e-31, 6.339611436817958e-30, 1.9775195399800723e-23, 2.505622147947863e-28, -7.874197637718055e-13, -5.34910486524252e-13, 2.6202366826433553e-18, -1.2063131333680535e-26, -9.278321282936236e-16, -1.0683778403309878e-30, -3.189340138795598e-21, 4.085081738279445e-20, 9.135997973192917e-28, -2.5399958735013672e-14, -2.2985831804234535e-13, -8.463797687976083e-31, 4.814558281219923e-30, 1.262708398643115e-26, -2.6704107090324794e-23, 1.1169221198958783e-12, -2.6160320361942343e-31, -3.361641044686697e-25, -1.1210476827105836e-19, 7.619864644949949e-24, 2.318428685544177e-29, -4.100947537073056e-14, -1.0460684477761458e-12, 5.348065136020209e-13, 1.874146342745225e-17, 1.197915904443112e-24, -2.4999454662078065e-28, -5.1193115898640676e-18, -4.730507712526715e-17, -8.663942316864207e-22, 7.675532440273612e-30, -2.224393410392079e-23, -1.1068057115233898e-25, 3.2243998291355326e-23, 3.40158512353858e-13, 1.7230101899557103e-22, 1.4005294244650756e-31, -1.5620403448467972e-27, -7.797875352395568e-29, -1.0429859611542116e-21, -5.051147710431998e-27, 1.2335939616834093e-21, -1.8798563776369786e-12, -2.403636873712777e-15, -3.231317398466377e-13, -4.402340952957796e-13, 1.733857635344325e-16, -3.354621397407506e-24, 1.4211961408406324e-30, -1.02126905302417e-14, -1.404659055458566e-31, 1.4427559893139599e-30, -5.192628120318209e-18, 4.120859002458808e-29, 3.1996221719686238e-28, -1.5171700734260741e-27, 1.1655127094426396e-26, -3.3677323588821847e-13, -2.7048289352046645e-27, 3.096801941304971e-27, 5.780209319914272e-32, 1.9267592608005518e-16, -9.899253899363008e-26, -2.1526435398358064e-17, -6.963576393615402e-14, 8.813829538920357e-27, -9.816861867775313e-13, 1.9486438578641097e-28, 1.3950428894222844e-13, -4.817859591144909e-30, 1.5690203959744338e-27, 6.965780118265862e-27, -5.6807388538409984e-30, 7.955438242955791e-30, 1.507230049575103e-13, 1.6269312634195033e-27, 4.91875302080637e-13, 1.2956670213354332e-14, 1.1848358019353428e-19, -7.53877534944556e-14, -8.166491444082072e-15, -1.5359319897843692e-12, -1.3156246183371662e-14, 9.469882556497362e-25, -6.684401003618962e-14, -7.220279055705553e-25, 5.503876287741367e-17, -1.171303765477809e-12, 4.575984824275505e-19, 2.943401171973717e-23, -2.0155311271081073e-15, 9.984458423185135e-25, 5.975221794271533e-27, 1.3854751677672975e-15, 8.7592663492654e-23, -1.2560064583578424e-19, 2.9115736616993507e-23, -2.6020229967022456e-18, 9.286619254884167e-22, -7.021107773231861e-20, 2.4244467317463433e-12, -2.2360788179206497e-28, -5.0291554247009775e-27, -1.3309991932202487e-20, 1.0313950772535024e-25, 7.597609958557906e-14, 2.3405791256545133e-16, 3.949908648502532e-29, 9.469977955142693e-22, 1.1720469823623822e-21, -6.816109011302578e-15, 1.051463780089888e-14, 1.0267656037173666e-31, 4.92674052273265e-18, -6.07458090460373e-25, 6.1348046506005994e-15, 1.4905563395216758e-27, -2.2621618614909293e-12, 1.2986786771481242e-14, -1.65871896341912e-14, -6.852781101612289e-25, 2.554167757877929e-13, 2.639353020283012e-13, -2.5370241827512453e-29, 8.892178456383986e-27, -5.458997641941965e-30, 7.267996299968726e-24, 2.3904409036063377e-27, 4.69076763047635e-26, 1.0498586273637415e-21, -8.660643985538431e-20, -7.29372192239021e-20, -1.668478727341507e-14, -1.0893106336748e-31, -1.6018473044165018e-13, 7.490777275184333e-30, 1.292732754211768e-29, 3.2845159943396227e-15, 1.7684835430065457e-26, -2.21128013707188e-15, -2.0311820741876294e-16, 9.492510963767726e-22, -1.0985248497734409e-27, -7.953619816279554e-15, -2.772078606321956e-14, -1.0366208768576997e-24, -6.021505431718787e-14, 2.2998332045684622e-18, -6.4856074042039404e-24, -3.360476935774885e-14, -2.6330725670894868e-14, 1.9842277064140992e-12, -2.9868146306060217e-27, -6.3922688815704966e-27, 2.680969343729123e-19, 2.153791083677798e-13, 1.919100811454433e-12, 1.111519820133457e-21, -1.468121639874033e-27, -2.8924924888502123e-14, -1.5083108436337103e-20, -1.2679824477716542e-29, 1.0341887765250247e-30, 1.3954397407563722e-14, -3.591968557165987e-15, -1.349539445805839e-31, -2.2025308969661964e-12, 8.507784138874248e-31, -1.7316360099448105e-13, -1.9068229853556926e-15, -2.127347352968618e-15, -1.8474315041691142e-26, 5.995901049038466e-22, 1.4318163886555328e-28, 5.204241338873788e-13, -2.4975624128535997e-27, 2.1574818382470574e-23, 6.245010503664317e-16, 1.3289635917060289e-20, 5.526506895755209e-13, -2.1128683577193544e-12, 8.042127592090274e-13, -3.820593900934505e-13, 4.3382559455543605e-15, -1.4275807200823042e-30, 2.750091160177484e-12, -5.620162339669983e-14, 1.3127150780268186e-30, 7.788127574774683e-13, -1.1787487080592353e-30, 6.433447159008475e-27, 1.2488267386681633e-24, -7.901171419560813e-30, 4.623602995286592e-27, 1.6417444649307417e-28, 9.463876010247363e-15, -3.3395057109425336e-13, 3.088729623466974e-23, 2.608480737088214e-13, 4.042468318313561e-15, -7.402036339587163e-30, -4.804762125024991e-28, 3.3408525360634773e-23, -1.8567139187104033e-19, -1.5350115176456988e-30, 4.532544229969373e-27, 1.4960903098541786e-28, -4.3080370933387134e-14, 1.0316257976805152e-12, 1.9402653512337713e-12, 5.022781296889156e-25, 1.400159557459865e-30, -1.643866320234383e-24, 3.743387256779236e-19, 1.1475806024533747e-24, -2.2407269495097742e-17, 1.947155064656111e-14, 2.5915268096851923e-18, 2.514138543950326e-13, -2.8048599225486795e-23, -1.6273945916408408e-27, -1.0714895256555777e-28], [8.639994401364774e-14, 4.926930391190765e-16, -3.3847582235258725e-13, -9.894875517728818e-13, -1.3298429066355727e-27, 8.992918098401648e-20, 2.0511937019537368e-12, -9.308343931015302e-17, 2.012716291535873e-28, 8.445446854799056e-28, 8.058055260549183e-13, 3.993549622558673e-17, 2.5223002382802376e-17, 8.600835620582887e-31, -1.8273646237644804e-28, 2.4599936570896028e-23, -1.7239123329794444e-13, 4.338100773390672e-16, 2.780700162155141e-19, 3.864925963505217e-12, 3.3125186489094994e-12, -2.71522090585256e-30, -2.2918325624628153e-21, 1.8497943638693103e-13, 9.373698142192185e-17, -1.0676028961799445e-21, -7.538064659314492e-30, -7.673358199746479e-16, 3.241611658561915e-13, -9.263117226416759e-28, 4.6557699302020774e-21, 1.1750841126704121e-26, -1.1210135672052699e-27, -9.822914071215616e-27, -2.9615055412830754e-15, 6.707303607836907e-27, -7.935790282602314e-31, -5.883155491998909e-21, -7.726455890371783e-31, 1.2307383349147204e-16, 4.955196718515607e-30, -2.2811410735741907e-29, 1.2898731804182308e-15, -1.0040527409452473e-28, -4.890260443761556e-16, -8.662097078798833e-13, 1.1969006996652229e-21, -4.093712924027385e-28, -3.8029530891849226e-24, 5.643350231786605e-20, -3.9066481926597527e-16, -1.8650180831344693e-12, 1.9770833390125034e-26, 2.4959739872873794e-28, 1.1418745374590372e-27, 2.927160346816655e-29, 1.1858099394053137e-14, 3.669901378341231e-26, -4.6112575833743216e-32, -3.831412763197106e-20, 5.5795441847403365e-28, 4.434243530638809e-28, 3.4570914858109256e-16, 2.472119786770814e-13, -1.3316312665702803e-16, 5.766346980360269e-14, -1.3875255277506845e-31, -3.4018052613247246e-22, -4.995808213436761e-30, 1.3993964806606252e-12, -1.3501916635555666e-31, 5.623066963779748e-27, 1.0351162075678081e-26, -1.140543607687811e-21, -4.891184247340515e-14, -7.871315369926537e-16, -8.489814993936821e-16, -7.908247564656266e-17, -3.077726581078049e-16, 1.1119521099657401e-26, -1.1138537276719594e-18, 5.90387317239729e-26, 6.769887490815068e-15, 1.4298945546182465e-30, -9.860541281344078e-26, -5.937553797371776e-18, 4.403477131645685e-20, -4.366768129735733e-13, -9.698042460366243e-18, 3.3322192295194014e-23, -2.8022329895784754e-18, -1.9997252874670622e-14, -1.6321311716805606e-15, -3.6896909495345516e-30, 1.015556519720702e-19, -1.2033649402388667e-26, 6.38898341087201e-32, 1.6412192419814446e-24, -4.778309423424574e-13, -1.337756342529756e-19, 4.950512729968086e-27, -3.266155674312906e-14, 9.825362255338998e-16, 3.916705672824391e-14, -1.2846798396211993e-13, 3.3140416960013465e-23, -8.564504621109553e-20, 7.566669543848274e-22, -6.020074834499248e-19, 8.004637084889684e-20, -6.564135965730842e-27, 1.7526591397014634e-31, -1.0891736311976367e-27, -8.144849153669412e-27, -2.347297364900154e-30, 6.995797751079861e-22, -5.556326777616071e-13, -7.061958009011422e-22, -1.9539306976560703e-23, 5.984875198219733e-15, 8.42455412664727e-32, -6.050325894791021e-31, -4.961876122561206e-15, -3.848624244142863e-30, -4.197861131988173e-31, -1.2374134379454371e-21, -9.151793212124234e-24, -8.069420317833067e-28, -1.391646208014685e-12, -4.1138674811520417e-25, 6.58761358128521e-20, -4.6181216117158856e-26, -1.7592237551836748e-15, 4.129078009728379e-15, 2.15844075530923e-28, 5.219909679897184e-25, -6.993910465901438e-20, -2.5523853349325426e-32, -2.2717418392218756e-14, 2.0888220980972323e-30, 2.1471495707640053e-28, 5.5884502897101085e-22, 4.3970686939731016e-29, -8.854312230245234e-16, 2.5719017324081127e-23, -1.2520924381796428e-26, -1.4011041579517667e-27, -4.029294386876713e-29, -5.395353336049924e-27, 1.9713875768826812e-12, -8.70937475966288e-28, -7.119819220146587e-22, -7.560434192743056e-15, -7.110918061403997e-17, -1.1477533679085992e-21, -2.8502851262468735e-17, -3.3348655110460995e-19, 2.2913337843275272e-23, -5.057135436596498e-18, 6.757824456052122e-15, -3.62979815167561e-14, -1.3307550310722926e-30, -2.4809053455955783e-28, 1.5856898371903784e-12, -3.3541633185816248e-15, 3.949469493289421e-28, 7.8613472098677e-13, 4.674160060918736e-16, 8.847504222948785e-19, -3.5811860562921625e-22, -7.339190467597117e-18, -7.95025839492193e-26, 6.938254460278509e-14, -6.829119052252665e-30, -3.696264332787856e-29, 3.219298816867985e-23, -2.7244622826096025e-21, -2.8357935805803265e-19, -2.7882009161701905e-25, 1.5037634181856598e-29, 1.3695276497473257e-31, -1.236877061880174e-21, -2.6642916311721872e-15, -1.4743815474677669e-27, 1.5370957424045474e-23, 9.580002797275881e-29, -6.003436145268195e-17, 5.862179929327175e-31, -4.305469458105692e-31, -2.2788797500627887e-13, 1.243725246012093e-25, -4.708926257580496e-16, -1.1103261858124603e-13, 2.357329395450963e-12, -3.871836082555196e-25, 4.9971707502461735e-20, -5.535405411693774e-22, 7.749911209918762e-25, 1.1077297385157658e-21, 1.4473125939607927e-28, 1.3815518363709835e-30, -2.346030254712983e-28, 3.1914558832289083e-26, 7.008641980259159e-14, 9.109252993349337e-18, 6.124034042681637e-13, -1.1864763217602965e-15, 1.053054122106247e-23, 1.2382745683866766e-13, -1.2749805164752314e-18, -9.085282728027517e-14, 3.081693593296987e-22, -1.5961203294755326e-29, 3.858551817303657e-17, -2.80424005651856e-16, -1.1264731354041013e-19, 1.3017541934456855e-19, -1.9637516437176904e-17, -1.815657184901769e-17, 4.716420557328474e-19, -1.2109171516742875e-25, -1.1747675742004205e-30, -1.0769596060231361e-26, 1.3530605420780198e-15, 1.1150897369470822e-27, 7.931532677415285e-19, 2.2511523195418164e-29, -1.0167205885024105e-27, -2.2419763932865334e-30, -3.039931086581848e-25, 7.0952868499042045e-22, 4.8908519689091165e-32, 1.401324154312101e-21, 8.38970875147873e-15, 1.487951462975521e-27, 6.944974893081949e-30, 1.407598553881234e-14, 1.8196758598744884e-27, -2.2429277878656192e-15, 1.360556394313587e-13, 4.766153790629429e-27, 1.215630857431408e-25, -2.9460897461437576e-16, -1.04097183695856e-19, -5.039696326294976e-28, -6.42599962795747e-32, 5.397764595945114e-15, -6.616902438608634e-20, -8.109709393415001e-17, -1.5123720391306882e-24, -9.919162995109098e-22, 4.63748837400368e-22, -6.643687506170735e-13, -4.2611696424381623e-29, 7.795453188760907e-22, 1.3025898025647854e-15], [0.012148761663202253, 0.05020321372841076, -0.05881638723444553, 0.05072010137874146, -0.06422638248036142, -0.04916137535233513, 0.10490096812430956, -0.10218603986069412, -0.07553804035939427, 0.034043097826210414, 0.07223901973406147, 0.04709153184644328, 0.02105102591071135, -0.07316793259542652, -0.09339927604025124, -0.11921625945707706, 0.015885985391832665, 0.14835125627245674, -0.004845253140778917, -0.04002576483889305, -0.051280014693679606, 0.11381903950011106, -0.10904957228082149, 0.0937669673879996, 0.03386151765327682, 0.03916619980414551, -0.15583380102653507, 0.0829500483785789, 0.10758392123749619, 0.014698896158124405, 0.05466778100997052, 0.07652500449704429, 0.008258957262970469, -0.04611791719484999, 0.062471803889106316, 0.035197412565947085, 0.029974188013619407, 0.058235105673299016, 0.11383067619816258, 0.1100078194164917, -0.06843065221747643, -0.08860313850818459, 0.10694552029245488, 0.14246427573947865, -0.09993641865628622, 0.07729188120168971, 0.06557473106382397, -0.013086016565213757, 0.07873615571456892, -0.03591960826787119, -0.12918493042286264, -0.08850928827289374, 0.05475127118834426, -0.178584255082043, -0.05192926024377047, 0.011712454054287235, 0.02033815577293767, 0.09522783950860449, -0.041501707606906586, 0.040457371699195756, 0.06284928598315427, -0.10632127225789938, -0.10681058976704753, -0.03378409501046332, -0.045765489395439216, -0.13884347169551103, 0.03085414964085368, 0.005220608122791054, 0.12046046785911774, -0.0780907993737262, 0.027708995988109424, -0.01095014516659836, -0.0954643107525868, 0.05920387901963721, -0.12347665824668021, 0.10013691969738012, -0.027179977292211395, -0.01376574229205402, -0.07936542160289296, 0.12442356514521552, -0.012331726682915883, 0.06938042017318109, -0.10799174696512204, 0.039903284073141615, -0.06172858570531738, 0.1653847298856137, -0.058165651143302216, -0.04899854690039366, -0.1522581849389914, 0.02760983931624432, -0.0013827941201082113, -0.05828429040946509, 0.08243726892309264, -0.0015528324656602498, 0.07839262470144552, -0.008841756893290208, -0.057639853857774016, -0.028708360639040142, -0.08955629653247787, -0.0814813107646489, 0.09574618090541638, 0.10446108582014405, -0.026621344263153233, -0.0690557348231506, 0.04302038934775797, -0.04343562932871466, -0.14315303294204998, -0.07890397089103095, 0.037188190189276556, 0.06053909547019204, -0.12094115120954115, -0.05138518545597653, -0.09008043648044188, 0.028031753467282, -0.20025276763367678, -0.1476607984517924, 0.13207450158887002, -0.05662755557782226, -0.0502906304428555, -0.03399980353257211, -0.061084176066026126, -0.10367689482184875, 0.055515141689493536, 0.11088586287354053, 0.09718194942298784, -0.020181806348706637, 0.0539518251945162, -0.07489609261388377, -0.061004795496152626, 0.11674594684347671, -0.16520001828890402, -0.0678969533040718, -0.05767581946985181, -0.20956834369399713, -0.015636681463360756, 0.06291906770229581, -0.0006668492103446834, 0.14734605163328507, 0.1201728947847415, -0.054757459204572416, -0.04896186672370525, -0.09095346454144201, 0.014047361508899866, -0.06777447936702882, -0.009709915169057769, -0.018931981056686833, -0.017871536966301466, -0.017825623045778893, -0.062446564016684594, 0.11126338373255111, 0.08228608396805888, -0.18076853757174932, 0.13574905396044304, 0.004534301529114619, 0.058550362523025375, 0.05109141823305637, 0.0213481999984864, -0.14439059123452622, -0.06300790894232383, -0.025404953293448822, 0.026712944590806947, -0.07341376910289135, -0.10917624490163998, 0.10392355025070799, 0.10551496932404034, -0.004245226603148383, -0.1333758394352748, -0.10824672014454993, -0.13404224737308082, 0.08818866237571096, -0.10163463817419756, -0.004676975751184518, -0.06423463555928163, 0.0344052430504256, 0.059386390197507584, 0.1027698424640162, -0.07537852902080248, -0.1259573674884158, -0.1159453226426906, 0.021737816159248188, -0.0010147051876414947, 0.03256950615171403, 0.06549907144857302, 0.002579990005190641, -0.18468067982664843, 0.07283734646369748, -0.026175138008859008, -0.045448325611839785, 0.04471816482848788, -0.14335115328005574, -0.11466831775684475, 0.12764061741114197, -0.1388951892475624, 0.1295949566097991, -0.055351066237540957, -0.003430369297073535, 0.0337766168376964, 0.042921872292630114, 0.04622324495960168, -0.04089845565634199, 0.06574460536268632, 0.02151991756013637, 0.05220632412479427, 0.06559317841096436, 0.09468382531132224, -0.04590234570982505, -0.09528718235469008, -0.129303554054381, 0.009075201862651852, -0.2175122014261873, -0.0235728499461585, 0.023806068940360366, -0.015400612640455155, 0.04543076800891055, -0.022176721459288423, -0.18663738823412965, 0.12065062617463974, 0.0015338412977550218, 0.028942714554834756, -0.03687244755899195, 0.0034271087393853176, 0.07399573580227178, 0.06015285442640991, 0.06709896046566081, -0.047469673421538586, 0.07367692121340905, -0.04790017307787639, -0.07048401417768106, 0.023489847607486312, -0.09344550074960488, 0.11614687389883606, -0.014548671968929358, -0.09493238391431602, -0.0407027054096621, 0.10764339976884665, 0.07484040947255106, 0.06220172938330874, 0.06368816131377292, 0.042705201181841686, 0.017221521447794284, -0.027094208428376912, -0.039260914910572105, -0.10631041511098659, 0.1876453870837888, 0.09874470438856407, -0.10983513475359347, 0.07076658952782879, 0.18445842778402405, -0.032526713790797385, 0.007532494836216275, 0.09908358851596571, -0.1070031298976253, 0.0627916188150503, -0.030291693860293237, 0.15750003590892006, 0.11571827944161922], [-0.04400808662471616, -0.023580489659591017, 0.09431544467416705, 0.1237860583704958, -0.05105200349421587, 0.0683580597868463, -0.15297181406324034, 0.03647408597626321, -0.040182246452796486, -0.12989669738846912, -0.10289861645200202, 0.02770739989107082, 0.005809667574204999, 0.13717743045288297, -0.1715068493645382, 0.04278305164564894, 0.07631504866538245, 0.09615183963767943, -0.06775320135834965, 0.04786412462005616, 0.2251735623385721, 0.06939188977376025, 0.035323843453956366, -0.20559932179360693, 0.15184283552740857, -0.15810456426661829, 0.14913899768240965, -0.10992099487652708, 0.06451055361185622, 0.09685415822537516, 0.18143934628978406, 0.0004411351759387106, -0.007838317295161996, -0.15958830955820033, 0.034627501118329, 0.015006996455649563, -0.0020414146492405516, 0.11776927421727491, 0.14569839580441113, 0.016338281440538817, -0.040754316561524985, 0.06414514505661031, 0.04469325946899965, -0.2552420682276884, -0.1627596582287345, -0.0938519268497639, -0.06917407433875673, -0.16242865081412797, -0.1608164565112211, -0.2517605337451849, 0.08519953467676408, -0.026370932621074913, -0.050772229386722684, 0.06977138479806347, -0.08635820540588293, 0.020008016172392302, -0.05267915486432746, -0.24325892069077895, -0.07111115517292266, 0.1049272228574079, 0.005426970856419541, -0.007945091620845484, 0.02376651684221536, -0.09532439604629497, 0.0986431581089457, -0.19086514383845005, 0.15505256681612026, 0.08769056655330837, -0.01958348668476919, -0.005985552254275379, -0.05888627717720273, -0.05561673342920043, -0.06459987135165506, -0.14279460900628083, 0.05541060955023435, -0.03247559634809507, -0.1992599770530614, 0.16346210481725315, 0.1204104408718615, 0.3045551565488053, 0.221809271764853, 0.022901353852632245, -0.10953167540884988, 0.005558578096038416, 0.08021365010842685, -0.18037319937901258, 0.07311108322015072, 0.020034619985390512, -0.12428264604551854, 0.009550682219428279, -0.03630505045577822, -0.06318987839660356, -0.11931215698240627, 0.08387413944294465, -0.16373058503806487, -0.0667289515308066, 0.16083253838426195, 0.14053613515949437, 0.11690667912854313, 0.024152043999004474, 0.015457622022109346, 0.02733778005194781, -0.10615358594346345, 0.010323883016510264, -0.02349030212297288, -0.12277392617260774, 0.039726697018014366, 0.15056182368062665, -0.13542009307898142, -0.021688355911326482, -0.059693854056977955, -0.0927165155018882, 0.13932160575623145, 0.004995609170998828, 0.003252882432046877, -0.07744099631228568, 0.09764520266121798, -0.13595333458533373, 0.07331548895163256, 0.03500396160928729, -0.03370777366935747, 0.11272702017734702, 0.13212027008180932, 0.025757173594120827, 0.17553922900060812, -0.005263321626097125, 0.14700152355199886, 0.16264608713926257, 0.009974413738039615, -0.009442424591611069, -0.016814024836473408, 0.042477767083603506, -0.11618706199286016, 0.03139966644838498, 0.12340448439328762, -0.12158477969411655, 0.10164277295573547, -0.13021915926759256, -0.01556483180862515, 0.07548677103182017, -0.08469097971388288, 0.10302098405624967, 0.15213133759559774, 0.03258264089089621, -0.055726299848196235, -0.05479557431093616, 0.16412837287280801, 0.10762764514692452, 0.027949851399969285, -0.15636910358363787, -0.08292936491986, -0.012054040768946759, 0.10278879273051106, -0.09855888717683185, 0.20241835336414463, -0.0513933727422856, 0.041278106979509295, -0.09765068952372329, -0.034030677088652955, 0.10338650394849778, -0.07054767131906092, 0.17087630214876132, 0.02207726181012413, -0.17220189151533355, -0.009478061501040441, 0.06267370542323962, -0.23827361937754252, -0.0062570378898571775, -0.03332031191455082, 0.024593376119124218, -0.19586761175950393, 0.07756431629170725, 0.10554674475186793, 0.06793505632222002, 0.04799793527346712, -0.11863171734146742, 0.04521869635785472, -0.10751030554525941, -0.22570782781383342, -0.04026903383473236, 0.08525776079443234, 0.06190505096730776, -0.04574231618554159, 0.0483865575345132, -0.11507815987863017, 0.19860101779040787, -0.09604788767336173, 0.09121946778393639, -0.1704333795095583, 0.05426571878040491, -0.023088702094955987, -0.0841716662134894, -0.24644264840078026, 0.0307474610699701, -0.03500580591043844, -0.1314041343756184, 0.05912017795193762, -0.039908688440165985, -0.04205628364945605, 0.16839777525479352, -0.06548572765994888, 0.0065330879039743606, 0.04004659565463267, -0.15331884566734666, 0.28660729336610413, -0.05331821649205102, 0.13067490250133945, -0.06584330705066617, -0.12264746217055977, -0.08839198904896982, 0.042591177289744354, -0.10572014728463322, 0.13319574279429558, -0.049965696929811225, 0.1298237831496285, -0.09180369706218994, 0.13935302389230572, 0.07092757114976543, 0.031080699910465366, -0.006484135447281589, 0.023741086931294363, 0.06450891699448452, -0.0699955154169711, -0.17765211760684896, 0.14830414614944454, -0.04108288420065989, -0.03567724765678888, -0.12834316073511803, -0.05996325857331754, -0.11118916853125298, 0.0515827030141988, -0.04269092012091509, -0.10766694141376548, -0.03254975510974363, -0.15172931994920658, 0.033894910275911884, -0.04066163037354175, 0.19183189390086464, 0.000955651343427788, 0.043720716004493475, -0.11627467966020166, -0.1417726427922804, -0.09823183229215626, -0.06535962771336834, 0.12092281762873318, -0.010616146636530887, 0.16994368202571306, 0.1777756034181301, 0.0037629949442464596, -0.14874625327618068, 0.03129592177637221, -0.1484924127785025, -0.06442957893270247, 0.06901161197433435, -0.08923815029208156, 0.028423578316525255], [0.08224105284741243, 0.048055615033825105, -0.038146066102943396, -0.1203354327189791, -0.07845487484225748, -0.03867708744554546, -0.13978043862542608, -0.0516542117771258, -0.12061186570393248, 0.06617897756552228, -0.005512527798601724, -0.07784929448967168, 0.0026594085780402036, -0.02635719522456906, 0.10508442970928318, -0.14143069890259855, -0.12180689288135335, -0.09957698196318869, -0.016554829621900437, 0.04670392151426743, -0.1352898756421993, 0.072796361736726, -0.177152616800954, 0.07143701548545726, -0.030299198646611805, 0.12673763496658702, 0.0730733144298403, 0.06457406430062751, -0.1138972649831462, 0.08286631990606681, -0.029680154757897738, 0.12945209809712632, 0.06740587880205369, 0.1376515838320222, -0.11669280466304253, 0.06703132859168849, -0.05212878928469397, 0.06245534919055703, -0.19323336379864514, -0.04918515274697683, -0.1735432147228581, -0.09778459075700055, 0.07445441847238488, -0.04712501905903895, 0.10050139161019188, 0.008216296502592785, -0.15306857884197347, 0.13311419062040886, 0.03983947523416297, 0.04328365617035158, 0.005834172478115289, 0.1482812608728315, -0.22209434613757864, 0.14588930604002842, 0.14377436081037018, 0.022798479987515333, -0.04430487220371791, 0.0157102820746273, -0.16648729875146373, -0.1469612124990166, -0.08790450109165712, -0.060813179626730406, 0.08786263379524314, 0.08314255583627284, 0.09635049246382718, -0.10782972365830006, 0.03529064066759758, -0.14199149520195303, 0.12942068020141453, -0.11436678280962291, 0.1838817960623453, -0.0328382757032512, -0.053495259935668824, 0.0868858884064506, 0.04326314125247436, 0.17025703432687778, 0.05443520279627757, -0.036337559481793305, -0.05151318824425868, -0.031632645648130016, 0.06455310976205918, -0.15120526994111047, 0.06711479598711649, 0.05012362450487634, 0.07636826394156093, -0.1095187714578025, 0.16810192298882456, 0.04354926597044105, -0.0009255655267580085, -0.09562056339301557, 0.19491966389961998, -0.17032627758949836, 0.11287800250817606, 0.026343416212475067, -0.06867151380769082, 0.13978952172898304, 0.022187731864141837, 0.0019872018252814695, -0.11331268355340039, 0.03232354295146018, -0.1443578970430138, 0.01069948530158903, 0.08254966760909527, -0.027596662876075585, 0.0009200578224391633, -0.15834063277753047, 0.06438231825305045, -0.18079030586957046, 0.22223556529804828, -0.06662127771006632, -0.009322922364384586, -0.04568647766424853, -0.13892597955768302, -0.06964520011415758, -0.13882379146526236, 0.08503593380094755, -0.06174207951576766, -0.002687940147167374, 0.08360894079996707, 0.031804886851830576, -0.1585324838971448, -0.1288755508755107, -0.12095589677923889, 0.01897333744397861, -0.03892159660955653, 0.0023076969742352755, 0.04526168029289241, 0.10911941867718591, 0.005659527119611323, 0.07648455837584976, -0.033516417817819374, -0.06841523253058154, -0.11591227129428686, -0.17484124893048264, -0.02394461139143833, 0.09160777737196817, -0.1303306837681537, -0.11976856645306251, -0.001849270327138383, 0.09974690598530683, -0.11466104786135675, -0.03176857675713624, -0.18977828464222682, -0.07908887525120735, 0.09808309967147338, 0.1278790299485341, -0.22109311873167448, 0.07194957135357741, 0.07331131329132146, 0.08863890271242235, 0.01639532598861482, -0.01458406175525113, -0.017775275990253196, 0.012222154159697369, -0.14239784077793288, -0.1237639855115197, 0.03792893250730019, 0.030451887521201204, -0.1493282115666116, 0.06798157707896642, 0.19508894067680468, -0.07873965265729868, 0.20034449204703367, 0.08163479228064219, 0.04379481651354142, -0.16115601306130803, 0.11597139180907384, 0.07332900034173613, 0.1814829593100224, 0.05454498120438321, -0.07270756209192497, -0.0018502972390946526, 0.056688615160068116, 0.042515200156851986, -0.1800092397025613, 0.11920703872135151, 0.04488558058297945, -0.01725975859790701, -0.1703195181374535, 0.07914083899387979, -0.046827245613100026, -0.04502542292459733, -0.1337396366585834, 0.0816985104216656, 0.1865204808245298, -0.22800416115554295, 0.21944032776416292, 0.03682868365141219, 0.03969332519238051, 0.1170288636974315, 0.0024971693157620936, -0.02707822908874238, 0.1912695853171865, -0.008118941062651265, -0.017579133692497934, -0.02228712113955161, 0.08784765614229571, 0.07367089656750057, 0.08058285381936758, 0.03395892959930145, 0.0798092312076786, -0.17274517304254353, 0.056128865948396466, -0.13812663633436545, -0.16773293699887137, 0.037788578503052575, -0.06253802045103085, -0.009898719757076678, -0.04270176487854991, -0.042177559813882354, -0.1067645213502693, -0.04726574605333326, -0.15861819893588214, -0.03659137838432676, 0.019205921889412995, 0.07882722959344779, -0.005493971355069329, -0.01162382190463771, -0.0636177185836947, 0.07388937157895761, -0.10022185932038438, 0.005615143148249525, -0.18439947600589007, -0.08276421031583095, -0.002102240305327369, -0.06950114284692815, 0.06546156228379654, 0.05598061045030918, 0.09028920553919008, 0.03501459821285646, 0.09024252871026264, 0.12015198415730415, 0.11987628990899458, -0.10992293946931785, -0.15538161950160187, -0.17890495431005798, 0.03187397229666071, 0.19399339749801986, 0.008634814588351533, 0.18453954631257993, -0.12491278535206192, 0.1442695924222622, 0.0515471407274685, 0.026469024720068943, 0.004480391630710416, -0.08459228634735956, -0.15616371683672034, -0.0838811015630403, 0.11447506159705674, -0.028561017265088934, -0.07091948825824407, 0.11235967560068975, 0.041471935169516395, 0.022209204770353246, -0.08696622278989938, -0.11506210183834856], [-0.029008437853478657, 0.042373408001048427, -0.05255587924814336, -0.04876950061346615, 0.07446597611118455, -0.12843934115048833, 0.040432996574903096, -0.09820790545222767, 0.13442965234771462, -0.05022335134317545, 0.0932985516436499, 0.031804767333510696, -0.14544554410457455, -0.02638054557609277, 0.09401310352061591, -0.02854581734970076, 0.18337022685695023, 0.1440609790349442, -0.09935586585472866, -0.08204549540081851, -0.023291923449122894, -0.024777682852234594, 0.061181699607956996, 0.16865105051034784, 0.01557076532060225, -0.06218491630566952, 0.059494003371331115, -0.0918157942865255, 0.07881718044601888, -0.016588114346158617, 0.04613597249886728, -0.13120501329353323, -0.006982500229856415, 0.018048539245842345, 0.06058535705937646, -0.06590251042633147, 0.13789428989073896, 0.07072911746232723, -0.05971298985227625, -0.08371547794112613, -0.19403696946192084, 0.024502836853775828, 0.039008811794210146, 0.04294548378924028, -0.088181690271589, -0.07632416304893383, -0.017874256046385994, -0.025969797240165803, 0.19200005057853284, -0.11748366700407634, 0.056353228518150285, -0.06092303431971074, -0.0566725528451668, 0.0009604531171609064, 0.028080705321855932, 0.12954844068988944, -0.08982783580974486, -0.16572186250858004, 0.053554137680612464, 0.10877610918296488, -0.06961273856963962, -0.20373647436799894, -0.12703612215305266, 0.08861290950049865, -0.03229408219547119, -0.10287306139374922, -0.03744638535920827, -0.032602038445063465, -0.11143735245466051, -0.021709079515084686, -0.10644973361987854, 0.055429621462795, -0.0561184044043212, 0.03115800724913717, 0.05404157888135137, 0.011089114228702847, 0.08039925790152525, -0.05450515087796167, -0.021850743445155807, 0.048894615279089094, 0.1250214097125242, 0.09959624470723055, 0.023707167643294575, 0.030424165976366234, 0.02160235119321208, -0.05249156735464076, 0.03402161396235262, 0.15173935200448432, -0.08943627443424855, 0.08808383055248076, -0.10766108250934035, 0.06656549640338132, -0.10036073519613525, 0.006931066648942344, 0.10451369560074723, -0.029109241308253327, 0.018782621797427373, 0.03235543971673737, 0.12285294172701369, -0.05715808229179356, -0.05535320182919207, -0.10094640427950433, 0.1085216506773983, 0.11003512315092726, 0.018079646001707642, 0.06320027445381658, -0.06172665579595646, 0.05852529446379511, -0.10965132721194361, 0.08737084279047828, -0.10020268738833146, 0.12221607666954584, 0.06010241240472805, 0.030176762342032905, -0.1768756033047598, -0.0942423108163621, -0.027923572355750263, -0.0204345354408919, -0.17197414332660094, 0.1781892964933509, 0.06903037920729119, -0.09281448330384175, -0.01609204951616934, -0.0015586574268247261, 0.009748830083540527, 0.0406779804982105, 0.13949059353329668, 0.03598423434831209, 0.11214759834523602, 0.10133013423543767, -0.11964590194553539, 0.146908384274649, -0.05953513473013832, 0.007135232130232343, 0.025724268931512268, 0.13286252660341916, 0.09645357966733212, 0.12080579059684944, 0.0960755241759225, -0.050606709151342716, -0.08242380848316715, -0.07348739742474523, -0.0684742021729366, 0.032488707337278586, -0.06188831061374137, 0.11850951356171069, 0.034606405154381056, 0.12406551237578103, -0.07654924382269264, 0.1043522768574295, 0.11860166824312578, -0.0942411603051961, 0.02168384598814702, 0.08941773935940936, -0.10923512736410593, -0.021476537438053105, -0.0014927604536234705, -0.14438287403683026, -0.04845881386177059, -0.14911901552078563, -0.11724320201768375, -0.10953855412303751, 0.10896008998331318, 0.017269373037012713, 0.12070887646175868, -0.045423854167858026, -0.08764940921293624, -0.07848899838808254, -0.036703229971105526, -0.12506149954507342, 0.045756145112203765, -0.09426482752320246, 0.02564366664240187, 0.0580394719594645, -0.06803724296725405, -0.07590293706427434, 0.07665873847893753, -0.01358549011175302, -0.10436368898754643, 0.05195767356440971, -0.21918904809936052, 0.06955631144720904, 0.1644495557248588, -0.10866582510502376, -0.17968701093358366, -0.11990944154620467, -0.055022235833091356, -0.11000904690178424, 0.06229450970692857, -0.12199556289326116, -0.05981652075471278, 0.171955323851232, 0.05604333728438145, 0.13774048049640156, -0.03089364637140577, 0.040776724035011425, 0.08553873688338283, 0.05095695983195976, -0.1047461910679078, 0.098176198992447, 0.030166094036787112, -0.0650841431956537, -0.011186152848643657, -0.09612254773259918, 0.1390113990364951, 0.10861381960615873, 0.1036878085327422, -0.19048103426722734, -0.05933950078080407, -0.09737537349731105, -0.11248036765389896, -0.0752376547757235, 0.10683160319590614, -0.13261370416866985, 0.07795769276011366, -0.12418009537199842, -0.08354066857041534, -0.05974906777940043, 0.07795911457707777, 0.05348271872468098, 0.1778073709403614, -0.003922433082152618, -0.0989441749517038, 0.02989717317906576, 0.019240106984724194, 0.11468947418734105, -0.10158799113534485, 0.01079597052211595, -0.16885938569269784, -0.06515939415815927, 0.05632498517731232, -0.0005338188750756174, -0.029845212378736607, -0.04516261714746611, -0.0005073091360268462, 0.12095899450275441, 0.08793614541556874, 0.14567117003010938, 0.08952878376836346, -0.11441222999801064, 0.08287065069057181, -0.057100513384034796, -0.07984376990234435, 0.14394168487219114, -0.12592484945982926, 0.09140582447198617, 0.004076537746302285, 0.09891757523156355, 0.08363853137553094, 0.11226745985842122, 0.037015553688001225, 0.030572568103712762, -0.10753793039744451, 0.03191269582117366, -0.03382928867634863, 0.06920118890062348], [-0.05732942762537513, 0.11381040139393067, -0.14339007545461274, -0.05020225166091455, 0.010158943269826122, -0.15767022334327432, -0.15249332096088009, -0.17274488643772642, 0.16442629346463852, 0.10570433168899425, -0.04768835865535752, -0.039375695407522365, -0.03149455872814755, 0.08593117613520447, 0.04565993778410582, -0.14507371487206613, -0.05483380504748703, -0.08636464677174788, 0.061027290402972834, 0.05254049027561078, -0.00035468640407864717, -0.09085900334742941, -0.1411089164373065, 0.14974258946136995, 0.05270943472735776, 0.061547723190322395, -0.005406736628955485, -0.1125017758866216, -0.11399287893979106, -0.07922739001912048, 0.08572035894968541, 0.13502618762003396, 0.011486116978336574, -0.05927421519090448, -0.06718274803155404, 0.14366845232890582, 0.02206197186005231, -0.07123927689875983, 0.16335207719729627, 0.09378307444919615, -0.023244412397409795, 0.07452324241842846, 0.11246815651399719, -0.0883045062246912, -0.22737205272471803, -0.15763453885124049, 0.06514335088710033, -0.11558079167109464, -0.039828324301315485, -0.09291127943428341, -0.0571451185725626, 0.049011583794951116, 0.020111210354229293, -0.05219157720165028, -0.12814654728757616, -0.2139257863444833, 0.04947249895999876, -0.11132858084592147, -0.10384430912522145, 0.12732954478828018, 0.022394179753880666, 0.08063579640228644, 0.14866601288229436, -0.019779797188619646, 0.06115893020541541, -0.05155295315588503, 0.1390772006349126, 0.08660091762192074, 0.02802486731828804, 0.03418694594037928, -0.1146887205697364, 0.04282761362752576, 0.1369156003437697, 0.11198151006666993, -0.09597934137393792, -0.08604109044970858, -0.19461617419525704, 0.053718426588988934, 0.11492546542618588, 0.029991177427670452, 0.03372115845193059, 0.06820209293584467, 0.025785692998533675, -0.04515630860404143, 0.07221021489991622, -0.007455777980708009, -0.011109364802341024, 0.037532589706737396, 0.01199449232506032, 0.10267055994887106, 0.004574015221976796, 0.016920136400601003, -0.10603913147616248, -0.050359595065737416, -0.23438071852338968, -0.03138350310701813, 0.1318274480631851, 0.1333277025598533, -0.17632298149421838, -0.067428037599498, -0.005493712529679677, -0.0388532738646633, 0.0165160732607197, 0.11278845981972857, 0.0701306669418501, -0.13681253817474706, -0.08054721489228403, 0.14800782150443353, -0.004790651526698526, -0.18009468682715882, -0.014919113515776496, -0.06961041567537242, 0.050805854104511015, -0.09829942713162201, 0.07327081564538426, -0.09608981121926016, -0.009051213332408546, -0.13460838559580585, -0.048132697161698185, 0.16910888624482787, 0.0957572391948903, -0.03979934346640486, 0.004597367559513065, 0.03522328666281781, 0.13944643526097208, -0.02913150758485338, -0.007802096139582529, 0.02068048134541396, 0.06975842694975845, -0.1700636878853656, 0.021902879971230943, -0.03385666401402366, 0.02337201756427309, -0.1653242452139186, 0.05825318489659661, -0.058027751700733286, 0.03834073314395558, -0.14626603667370996, 0.07064661692537635, 0.02157420742565096, -0.007420296763851829, -0.006846420707938258, 0.034118309636369304, 0.10236397508579004, -0.06618717103064069, 0.018559369633150722, 0.02103067550619592, -0.13608779440711005, -0.09585787841640232, -0.1435932012814246, -0.052970516900734996, 0.044732653750220105, 0.0873024215389653, -0.0014533950715107783, 0.07147209701126764, -0.14153908660036266, -0.058238783042999565, -0.1120136414588129, -0.1558850964016862, -0.05895680710940047, 0.13007293614544543, 0.10501408548727442, 0.19918143048079806, 0.13987443784956802, 0.07540057253427988, -0.05954816344127293, -0.023048580359089386, -0.028276491292999993, -0.11610239132688302, -0.09538969468356592, 0.02156866751212963, -0.0696404593583362, -0.0665687356300735, -0.011219038287399802, -0.1506836807641045, -0.10004094390546657, -0.047607713495968866, -0.18097291946104102, -0.17094895677764604, 0.132817174451728, -0.014574092984106668, -0.06099545247762579, -0.13903605847495307, 0.16127352858330382, -0.050011087893969505, -0.03948862438524784, 0.03180327698431897, 0.1675032815923517, -0.14568363290597153, 0.06531556335015672, -0.11667214495249992, 0.012355175649707974, -0.2477188845267018, -0.06910624124504086, -0.017899775240679646, -0.03395643564878661, -0.05769024131560589, 0.11371364108550228, 0.07113948127990052, -0.04813314139213829, 0.013268764647543476, -0.17644326090379758, 0.16680504171418523, -0.05771838412672541, 0.18707904452222363, -0.02795110973596072, -0.0938109823735074, -0.14990040572977784, -0.1112165535414553, -0.09985923212123654, 0.05057933771528028, -0.12934647794957563, -0.10913493568702476, 0.04070696883285127, 0.02021924855154182, 0.058677607164532145, -0.17000855050639818, -0.040836469473505686, -0.17795396524895585, -0.15315915984967945, 0.07140563025765653, -0.031220545257311928, 0.054678331412092294, -0.09552671473695853, -0.06424046191686145, -0.012517329661071403, -0.20164244862163871, -0.04066453257667159, 0.18834114985935066, -0.009167875547662234, 0.056313995277651845, -0.08482374748919717, -0.06894564368100731, -0.09622561178431875, 0.01181677789512833, 0.2013592514530256, -0.02916520961760223, 0.19377772096665222, -0.02032306545891316, 0.10170600513410341, -0.007598203337261418, 0.10495443100917422, 0.023193451725214753, -0.023785959606916714, -0.03157349892024598, -0.057284137029036265, 0.02573542380805249, -0.021325307181519003, 0.035444229641605776, 0.04904676706329501, -0.03022072965608617, -0.0737444614730881, 0.1451550337585523, 0.1372506399559767, -0.17372598755853233, 0.032315909840462655], [0.02610931493320724, -0.16129372491349536, -0.051572400311976865, -0.005344876143633119, -0.074177140683141, 0.13881269059303006, 0.08483774510428321, 0.0471579447844595, -0.05115747882921342, 0.09999593589296127, 0.08066665719626971, -0.006478959049841175, -0.10745370719677098, -0.038948738761751485, 0.05951145410087182, -0.04230690947687402, -0.1380458085232736, 0.0795870716112463, -0.12710784558540927, -0.06958887809385444, -0.07295472846639962, -0.08221380251552363, 0.061291830744999456, 0.027978689346196052, -0.1818989422822779, 0.12434973539748842, 0.13231334433744268, 0.10348430037029825, -0.14240451126886014, 0.0011219404368805733, 0.19858046839949592, 0.07512361234167084, -0.08700980764435297, -0.08368469782077112, -0.08045964591347221, 0.11744359035709696, -0.05016480331164277, 0.007016063819987237, -0.17079182754038497, 0.06247212617067381, 0.012567401711545093, -0.0625842688446667, 0.03984945401829847, 0.15434083795568077, -0.034803468321485474, 0.08200348942127064, -0.05544255939131129, 0.09907907437032765, 0.02889572368454036, 0.07314306724077874, 0.09988625257474215, 0.04963216697875415, 0.017469248296730792, 0.017519963591937023, -0.0197400826640853, 0.10308755082290388, 0.10713978226943946, -0.006960973542865603, 0.030327180656241057, 0.06890622206371665, -0.06037385716596363, 0.08174153284031753, -0.10763145809360015, -0.07349583299650679, -0.058020923953666835, 0.003665330108484918, 0.0869121637246887, -0.16134636890593412, 0.0008333269374321185, 0.017516087104415698, -0.00817449629752513, 0.011999349400947571, 0.06984468657943019, 0.025602828223670236, 0.1581046225186411, 0.054523330439442345, 0.09343643165446737, 0.03162975139099513, 0.0634274924623995, -0.10518799562905806, 0.055289451204739506, -0.05202452587644416, -0.061975092884897845, -0.1109597919234167, 0.0281590884291483, -0.02737043999135136, 0.12842232179315266, 0.07767524543494027, -0.042182650714050855, 0.05104155216582515, -0.04376418616799539, 0.013668401934398326, 0.09421619148617688, 0.029277442663082822, 0.06856298051362278, 0.006180251249005225, 0.0026202753782280583, 0.07127743103262811, -0.06731827610817516, -0.029235019774992585, -0.002428292252398342, 0.0923687491005543, -0.04792655146760786, -0.06917203116546634, 0.014099552482315566, -0.0075193585825717975, -0.07567711031369269, -0.1381097990894298, -0.006362654152574898, -0.06471644859461209, 0.06314674385015426, 0.0814152203816997, -0.015788131040208972, -0.024412874113483845, -0.1250788504912905, 0.08392916981569758, -0.04194959144762034, 0.17399713777063183, 0.10004352286206633, -0.1362258593746441, -0.008896201755774503, -0.05278201829691767, 0.06246101374052012, -0.13218851187826794, -0.14842088747925639, 0.09109410670990858, -0.12072506398153975, 0.08137080570652161, -0.06622707458537999, 0.0012557892782458955, 0.06439607080084503, 0.04130169049493156, -0.10888196274504928, -0.12295262359020867, -0.13897613930438013, -0.044766143800729866, 0.03819828493474607, 0.10848700580298366, 0.08957308266893863, 0.06109529006954068, 0.028340904689672663, 0.06095170317961708, -0.11279808875207932, 0.126654311900409, 0.02171611044178335, 0.03652986090893486, -0.1769357995588869, -0.057272325817637144, -0.012471303248337767, 0.0831234110210039, 0.04426001074016876, -0.06545104545223812, 0.1600534271981165, -0.12827577390672137, -0.07692711321979476, -0.13050166145640774, 0.14899324338399303, 0.10974083837085091, -0.12012826886716237, 0.08772804943212717, -0.008849708418977392, 0.11751184010094068, 0.18977255598176823, 0.1703493919151899, -0.18016473692888507, 0.09634652158188461, 0.08281190296015761, -0.005506042915800261, 0.1504036571785805, -0.035740106301563185, 0.03226572395723367, -0.12835007149048333, 0.006421076797359708, 0.02110536163401311, -0.13383625974700408, -0.07973671248032414, -0.14046512587191554, -0.004594667631512245, -0.15687840005140263, 0.027429447647232395, -0.06632069993329198, -0.08764500764080545, 0.0172787776260244, -0.09462588980399769, 0.1382632226780701, -0.018161745139753296, 0.0844562280533224, 0.054632422008803985, 0.06131923772930166, -0.04782218555945611, -0.11192979290370421, -0.11809366081237233, 0.16462628260868434, -0.13092473241245414, 0.07938583600152703, 0.07367919458302025, 0.08607746628323046, -0.008692570191457976, -0.11871454129922342, 0.1445199499263289, 0.044774941324697275, -0.12481463406435889, -0.07391104117695248, 0.08946323713210062, -0.04379332204213207, 0.10376113576587122, 0.05307679115438413, -0.024427443645725615, -0.00937946755178264, -0.03235672729349099, -0.0642214679969895, -0.0075340107157600795, -0.0029442824662392025, 0.08002809871624138, 0.08668306950256952, 0.000857484410611055, 0.01903943133487046, 0.030234521184400127, 0.055345639313162096, 0.025312557421253594, -0.1299335596514789, -0.02596795187844329, -0.17686310286389445, -0.05825426435566064, 0.027110452075462373, 0.019916870194698774, 0.16155778481646565, 0.09094071829089251, 0.09826651696668526, 0.004389881273054014, 0.05946879354533955, -0.06276316878132883, -0.04977132996999287, -0.02700363976016404, -0.052428373761042375, -0.21508141208012788, -0.16156721381337807, -0.040744964293764244, 0.1957511727039214, -0.005420565073911712, 0.015751792587504948, -0.03675111221384177, 0.10348273013817777, 0.038093023730279174, -0.0727157246997117, -0.005087761697140576, -0.20560893408082634, -0.1392169652203319, -0.0401664675866321, -0.1918266994360135, -0.13607827486897425, 0.05166553434184284, 0.0356077417390514, 0.03802283835353484, -0.023975970212776997, -0.07427254886133848], [0.1795594154060055, 0.011763702610126027, -0.08511404452302929, -0.040556927474950266, -0.09056523282866608, -0.08364593831233329, -0.01310179334692416, 0.03142025884327128, 0.01852251873635411, 0.019672803206719564, 0.15126910280039743, -0.06088309597473215, -0.07555067180699818, -0.06665889635299066, -0.024175629177506534, -0.054235900857939806, 0.15672075033477234, 0.09970026877144474, -0.004923283953018621, -0.047067753054286135, 0.0188313122739177, 0.136282698472716, 0.028282943329900962, -0.0696195184499131, 0.10881948739818643, -0.12083675415637936, -0.09307470985821908, -0.15244654070700225, 0.03874804732596753, 0.06653806692471403, -0.09479444451672668, -0.033892716816122735, -0.018153855083111584, 0.00383164937310709, -0.07465393689618383, 0.02141665058164171, 0.1873322001858838, -0.16286597665955047, -0.09811790985064327, -0.0051794831639140025, 0.0478790810272299, -0.01358320946881036, 0.07687317990745526, -0.012154249653792332, -0.011556153659906303, -0.17765512623569316, 0.0032717827005643786, 0.07292176502704313, 0.06835622243023196, 0.05806853926086332, 0.0594477165331299, -0.1400590026555767, 0.08929470021625556, -0.17340680407335207, -0.008991753144751532, -0.10655113243224947, -0.11341307988804843, -0.13707232544370493, -0.07475925909099397, 0.09636432614932779, 0.02300055096578163, -0.20857197853111167, -0.10911182694906484, 0.022327071266529955, 0.022350346802488288, 0.015417187178340327, 0.07484039163484889, 0.07079756601818811, 0.04273126579748627, -0.02558013372652911, 0.0350386189591501, -0.05768145581413307, -0.056045790382261804, 0.09149375586340357, -0.05696994964021486, 0.04394796943802507, 0.14988979436014155, 0.08310417537198003, 0.14331982668950785, -0.03202690089799903, -0.008124856689850635, 0.04666376233179789, 0.00012166705086287595, -0.016244319285354768, 0.13075017438824377, 0.0873794196691227, 0.011622868412313466, -0.066530264173564, -0.014712216062329206, -0.04832399442271907, 0.05567302047638825, 0.012188359547831033, -0.09267584325239848, -0.08690820205372607, 0.038200761052074955, 0.038686010655683306, -0.06150133851644084, -0.12686074614055112, -0.03959126834051026, -0.03907814484551701, -0.0074629463249806585, 0.006751467393311065, -0.08577952223818144, -0.06213147011489202, 0.1540937302614577, -0.03129652101183465, -0.09231353485604382, -0.08547933339938452, -0.003199765276565906, -0.12487040375729366, -0.0023688971620234654, 0.20600947462980973, -0.05707825307318706, -0.14498769716003015, -0.11327116412378485, -0.09201549761684415, -0.08314810728438682, -0.10160989930100557, 0.0007680772019448258, 0.09205494211436978, -0.016488113287472666, 0.04013645372170552, -0.08314202780090753, 0.12658839815217302, -0.09542221717164427, 0.16538938996390457, 0.044578339264163463, 0.11499561191247938, 0.12741821271194112, -0.04676320529856866, 0.0503901088115442, 0.00680972285379311, 0.004615510558601311, -0.0877640078492159, 0.06016076036268448, -0.10958977177092503, 0.008587420587697916, 0.04947159717364063, 0.07686582222527157, 0.11217958808744932, 0.0266792361126837, -0.06169274420959158, -0.05019601630905475, -0.08975328667902979, -0.14344944755699493, -0.05925949806080648, -0.06307340592754845, 0.2033380498943315, 0.07685903856275093, -0.052107126476720014, 0.025967780160459284, -0.18036479522188034, -0.0351297355850044, 0.04575158960545323, -0.005584720837241599, -0.036101251720079566, 0.14776590724789712, 0.03291986524130196, -0.0007501463338822721, -0.02342294867817011, 0.06466513124992629, -0.09770487027526001, -0.013908956931386237, -0.10238397806264794, 0.00397148662105697, -0.047798834949458385, -0.12621224974921774, 0.01014862582005834, 0.08565641041281612, 0.017780891002489602, 0.0493649980241649, 0.06699517143801782, -0.13582011661344986, 0.08793495364029624, -0.10698965566336374, 0.1102125137403652, -0.05923206835201418, 0.09120758178763545, 0.15188580246250658, -0.1508015932000217, -0.09842791057598148, 0.1362769739964478, 0.022770712227775946, 0.08498632161105318, -0.06335294710896354, -0.06901009164503356, -0.05657760374126821, -0.07293226603469916, 0.07890129681763401, -0.03058128582943688, -0.10033915897395977, 0.01342787747097286, 8.258922930145177e-05, 0.21458462254495742, 0.13782266805623528, -0.015204335138927154, 0.11880269918965614, 0.12971215152567075, 0.01394143721480517, 0.09596613722726491, -0.031061976608827466, -0.12507879679349349, 0.1367145360865764, -0.11272618878079076, 0.12930756789152706, 0.1731968712309902, -0.0722823767743136, 0.0281289141704625, -0.09905750749377083, -0.05577060792794961, 0.0571003676507069, 0.10215453072173551, -0.10195173616898538, -0.04369588181692012, 0.11042447660167837, 0.02851153334760701, 0.07946696967069647, -0.09679438200527436, -0.10084156798973318, -0.03646447993707649, 0.10962053251252865, -0.0535658355782748, -0.04978077490617508, 0.13307443582540487, -0.08539511740676865, 0.1358552696688411, 0.03643981968989092, 0.1095815539745895, -0.12721806225264892, -0.1710762111255403, 0.0450816680425439, 0.1189710591255492, 0.07330202508039507, -0.09144831947159063, 0.07609998266421833, 0.14292858858867927, 0.024763771636877267, 0.13159392963192543, 0.12148466737658847, -0.00854836732907098, -0.07448537422536716, -0.032338014165651616, -0.135543791053216, 0.030846036571113622, -0.03767229237533148, -0.15085956888394111, -0.036970578745442996, -0.0668365266374632, 0.13866361206524075, 0.15270659342456488, -0.11515820920891058, 0.12091061431578083, 0.010131153516204703, 0.021137175297117165, -0.06308510113989738, 0.01177342928209769], [0.06748615090511177, 0.11050801193400822, -0.15004833680814184, -0.057854235027611084, -0.07979807408752215, -0.11437229703335912, -0.09812103395824895, -0.09645578986204865, 0.1196440277322192, 0.2098921723158251, -0.04079354583079375, 0.0754154360286754, -0.031200244353063594, -0.0030165360041215705, -0.04733689997141352, -0.08449199434598242, 0.10755760908766994, 0.05806675710816299, 0.009821952019293045, 0.01072012143757852, -0.07337359909585485, 0.14320436471936496, -0.09031244112225716, 0.03563427571174056, 0.08251226638018182, 0.06592111673636845, -0.1963679270754412, 0.017380398040981227, -0.08200324403541602, 0.09759496624870387, 0.14190778733333118, 0.15433463090440314, 0.04336910818718256, 0.02815337336415011, -0.03966620520350251, 0.12322947213791104, -0.06877636108091381, -0.0233295617535348, -0.054690718773460614, -0.067663149557144, 0.001114904658654184, -0.10388887170406323, 0.008862762467963432, -0.1300094750787182, -0.2389490610412642, -0.04957635512401176, -0.1702781371635042, -0.06989657296003318, 0.03684736396586799, -0.09161121886572317, 0.022985589107978602, -0.0799924645912096, -0.14787694026213652, 0.06512538609337404, -0.07220451917099005, -0.20475812105040825, -0.04098552143198776, -0.15921978885418187, 0.038454736409646396, -0.00028952535723103615, 0.03699624834100445, 0.13448179038902988, 0.02044813399708367, 0.17261637792935217, 0.004970916777813372, 0.1197753253485513, -0.05374654592650911, 0.06842350457280462, -0.04408194371807215, -0.048844009408739696, -0.04001305341438369, 0.026909352510324367, -0.11994805633206633, -0.08191171052128568, 0.12170610834724302, 0.050487366555225136, 0.03430670820076055, 0.04079711527350211, 0.15939933063190725, 0.02321807179462276, -0.09058592976480463, -0.1764101036439805, 0.08031968427334392, -0.015360955112671939, -0.06893821385231032, -0.03785829888434103, 0.14118070734130606, -0.06934459004085107, -0.07470222307912772, -0.021382519568000264, -0.0710559488016695, -0.08418841516522367, -0.09221059108050542, -0.17471799932759693, -0.015813710306872522, -0.010034356037708707, 0.158439266788548, 0.1028524588848866, -0.1972312673789155, 0.003272217876492941, -0.08188364786902522, 0.1366659947939126, -0.07262958779007567, 0.09959990509721492, 0.08418354682443341, -0.06394475691935551, -0.11066414064282692, 0.04548271278122011, 0.07448070015551625, -0.15418902706691678, -0.019531745581381196, 0.04372615959144275, -0.024493578526102157, -0.11480293237826063, 0.052217670918463556, -0.11549248006335992, 0.030909098735208654, -0.09251205648493654, -0.12509007662582053, 0.03743917952847269, -0.11969570117813982, 0.05586321527580947, -0.12635862089406139, -0.06724024240191892, -0.01718673247911721, -0.15493453295749407, -0.17544910868617788, -0.03796394981067144, 0.03503076877185022, -0.0649278979689007, 0.010924832633178491, 0.052849504344329314, -0.22921514983454974, -0.05094833968678786, 0.16741390089202393, -0.07448961250328583, 0.061951870063295125, -0.07353906143442608, 0.1168022532083277, 0.096949861035167, -0.025709075575830555, 0.12127393544387893, -0.19123077568418304, -0.08761720643202422, 0.025800654726955925, -0.0010795919916701663, -0.1941458707167365, -0.09743315770967978, -0.08334561553531471, -0.16246004433311945, -0.029859574683934048, 0.020908622035939604, -0.01819514530522417, -0.06580342769409583, -0.13883257767870133, -0.06987071823210897, 0.09688049494914307, 0.06844395663216711, 0.08052169674820886, -0.10164673174318342, 0.25219133785651515, 0.09192913709609218, 0.15698621702218785, 0.08534502629361972, 0.012452511995764219, -0.08116597315974794, -0.13126738190274012, -0.17318953256771907, -0.09637275446832218, -0.07003589615107696, 0.01184724602307538, -0.05761868310871663, -0.24714279178751247, 0.09995583153017341, 0.0600306311402143, -0.042802247265818355, 0.14362179615430093, -0.02559287413846466, 0.10075592510275586, -0.04900331698681474, -0.019378021444521547, -0.18418600332396098, -0.16626742972437886, -0.04571698130007444, 0.05030460552587749, -0.011767690026081743, -0.04517164305968842, -0.02501325280001458, 0.034824886514845686, 0.023628923561594448, -0.09383873907490975, 0.09598140439927162, -0.1461882927202155, -0.016694828739211052, 0.0439606309171311, -0.07068817424231405, -0.034061941966738576, 0.14256887222951503, 0.0827011887555468, -0.055885792431569215, -0.09677956375914791, -0.21290861745413134, 0.09569959656634806, -0.021732969721096822, -0.1484438655528427, 0.22599049704934263, 0.01546064661581865, -0.18900093457090414, -0.05008849395558666, 0.04488201790872247, -0.2093867712980806, -0.07138105994513508, -0.019060722749672583, -0.017488496673430734, 0.053273034326408286, -0.000622705432263542, -0.22162476099414843, -0.1690268524209919, -0.08581785136621668, -0.04271020849340607, -0.1442577211388261, 0.16767126173397232, 0.15970860224741001, 0.004062252314644882, 0.03799183772812461, -0.16169234155295076, 0.048111580765916574, -0.10736133665975339, 0.17418685683991558, 0.10114783184620589, -0.010758144228516541, 0.20083536652197767, -0.051583961174570744, -0.11701320053921192, -0.04297149784319573, 0.05003479480261843, -0.12185266937849631, 0.19366464048931561, 0.184222608319837, -0.017577537345817632, 0.10659268871269972, 0.15232498388291238, 0.143709234884739, 0.17717343928354154, 0.025768946650328608, 0.13125440649335912, 0.117953705798518, -0.0701029399867127, -0.05044133471559401, 0.06349575349710723, -0.1779242626652722, 0.053158129577214705, 0.12032341858502511, 0.05071134726133246, -0.10124749761708078, 0.030988062189957664], [-0.03268514597571702, -0.21871909577037862, -0.14864382918433353, -0.048336251161922576, 0.15062967666822724, -0.01000236369828614, 0.060103804818160696, -0.05181525477547933, -0.10505285148115137, 0.16516213204854763, 0.11339648169576264, -0.16574031680811274, 0.0072434355089944485, -0.1386111599125433, -0.036339438226059256, 0.03931093410662187, -0.10467802140141931, -0.04779516680824013, -0.0627497101738325, 0.09927602848301087, 0.1690761389633914, -0.14555222683270888, 0.12778614765903729, -0.0532741123350639, -0.14715809269014896, 0.09408651662646196, 0.14160783391991352, 0.13783103543496372, -0.04203758660488328, -0.01765022953826174, 0.1342839385800719, -0.0829167882909928, 0.030479190111284592, -0.030586903221608515, 0.0003244340850929988, -0.06963428360464705, -0.12977579127415728, 0.12255739288528227, -0.14868639934726258, -0.019515971018135524, -0.10338667219171259, -0.16251525669756223, -0.1509850805464493, -0.045781252436518746, 0.16841031042952725, 0.025052646380075778, 0.15651635553894228, 0.019863525469824447, -0.0005176003320048738, 0.05431376967886516, 0.0344132706881117, 0.12741740604540605, -0.06905950337275235, -0.03515773482565116, 0.1926133658764741, 0.204588943822435, 0.12152512752348467, 0.05598581896815613, 0.025428997367769945, -0.05133202905619298, 0.015314158283155457, -0.11602232086417005, -0.0035381404839567388, -0.09622825929662691, -0.029055053560454035, -0.0009817598872215116, -0.05446731731684193, -0.13917645216867375, -0.08778428123292181, 0.07715238100135319, 0.10549930620574438, -0.13103260537140385, 0.0963471377861204, 0.0951135395750164, -0.017098022870355715, 0.12220181767995138, 0.06831789779404064, 0.023769244944294533, -0.050388419264929554, 0.10193153481624055, -0.045292201797331226, -0.0411518518353664, -0.009195546409188748, -0.10699103382162471, -0.09852315660189793, 0.019482539929323105, -0.11748312377108151, -0.023163153961125896, 0.0491183464882802, -0.10994558125964037, 0.13636151235574356, -0.1365688241536194, -0.05542210932385558, -0.04108942862335513, -0.04578781652962767, -0.0729873529279946, 0.04509772039724458, 0.08936529150959825, -0.09317510306889552, 0.0427845154449068, 0.12496793003259718, 0.06358726254745486, -0.0022373636486706745, -0.057366040857230065, -0.07784682908301377, -0.01840932454336989, 0.13654906669104802, -0.12567294824999878, 0.03514584537951685, 0.11009141662180601, 0.16186152449352845, 0.10286802282158634, 0.019991957346094696, -0.06421026949613624, -0.04245894688862082, 0.03670203711187022, -0.13518054140611768, 0.052663920637800454, 0.12253101030515164, -0.14673158079419538, 0.04105644225167913, 0.037365858863965776, 0.13897484544450267, -0.12868769790161003, -0.10445485819778118, 0.01682137831035732, -0.11298306267753568, 0.03277167272618096, 0.05996960562627193, -0.13431116475506427, -0.0035548964492440028, 0.04590435132826657, -0.08902322478676049, 0.08975300836133067, 0.07208411483523473, 0.08488544914963964, 0.05939326475891947, 0.005952469945353253, 0.1003375987606769, 0.048649766866399755, 0.039979738827562325, 0.15210875967589765, -0.08468807456907944, 0.11448334461736359, -0.09364421551592003, 0.0024919387220730363, -0.08892016056206715, 0.08276070364543973, 0.05768946606346991, 0.03876158451233874, 0.09580768792766192, -0.020370318128444934, 0.18583339371165905, -0.014210301548601905, -0.09879481649271399, -0.10773089693396286, 0.15362771165567513, 0.08514182477738953, -0.07211774643845031, -0.14843291618299645, 0.10033926138253545, -0.12687278273733693, 0.11091774131006141, 0.20178181855406668, -0.06323966293952259, -0.018950197188644984, 0.03664676679303959, 0.16676679125443108, 0.07100636966231613, 0.15708205158778293, -0.17371556882615197, -0.020093956798046438, 0.02562196492614937, 0.09337745142802188, -0.04127407099567924, 0.050377715292699805, -0.01010674484186969, 0.035956929909284924, -0.19303247412918023, 0.05735550983385068, -0.09545902951638666, -0.036902936329857056, -0.1049592498224093, 0.0973676982470891, 0.06049356784694097, -0.01912972132877371, -0.08257151596434693, 0.03644469286935531, -0.0039043513111435995, 0.10860305954368403, 0.11533619502041645, -0.14620030211754087, 0.11891001453972867, -0.15658435015739214, 0.09421263705817015, -0.1047062951986461, -0.06446919189732588, -0.06620503624679554, 0.014128286441096061, 0.02726847117463252, 0.0917936428707309, 0.0013080988709480211, -0.10964826460421197, 0.05603459921267284, -0.10926328435060982, -0.05249133543577101, -0.00016759997354566275, -0.06071432452632312, -0.12680714530061013, -0.03164790509883551, 0.10469173155989489, 0.06087585292651754, -0.004228635779527345, 0.06730078689392413, -0.10014163541278737, -0.016320617095649165, 0.07443892006907898, -0.11044358845479704, 0.015665056954250488, -0.09071963494273873, -0.03412252391885758, 0.07118155589980008, -0.19372810510620023, -0.014825233678152935, -0.04954392000948248, 0.12254234475066815, -0.04562190206688843, 0.042077989655639504, 0.0641611692966964, 0.08643038514955757, 0.0016361286253759753, -0.027509180895263184, -0.0067069181578660085, -0.04818506889680165, -0.07980463174685684, -0.13226146442578013, -0.17599854240524465, -0.09136901028058993, 0.10085960767418421, 0.11083006990918351, 0.0755062452698238, -0.060968169015486406, -0.05201253478601299, 0.16747701178081445, -0.05244858763514076, -0.10715122447002942, -0.029425660214948794, 0.04037932136769871, 0.05354628088156201, -0.1499006173474302, -0.17549778277597916, 0.2108331666628754, -0.1131001963924373, -0.005649494075204422, 0.06418683893386369, 0.006609981847093363], [0.05733022717135514, -0.04022470309270779, 0.05436533428992015, 0.02268219486976165, 0.1347429774153103, -0.13293483215893204, -0.1305465229894109, 0.036876114898758985, 0.045008288169610056, 0.1122860520721531, -0.044757334621021855, 0.057980818726925405, 0.10786064419262008, 0.04711983480149277, 0.0017051572641795564, -0.17272920630916264, 0.004708410623820495, -0.0353665680359571, -0.047372553307036484, 0.12028008664359699, -0.086099308435788, 0.1329079577871216, -0.1650591438997858, 0.13505208849578001, 0.20018914275672595, -0.10422704289303901, -0.2268532669562508, -0.01525198995364882, -0.05185705369626731, 0.1409488120536491, 0.10282508398419905, -0.008180780137410332, -0.025832945076752576, 0.06651580740384902, 0.05714732728156692, -0.06279546416021548, 0.18366405260543223, -0.03455229469587177, 0.014032169593706243, -0.09788607792633351, 0.025890462356663865, -0.19066733697990693, -0.08342469495919487, 0.14160546563672705, 0.008782159824575824, -0.1182775515900895, -0.08999622239876764, -0.1042496306108795, 0.00644054599427514, -0.08715549653006259, -0.17063099217806635, -0.07519928439232892, 0.10367371113509195, -0.034138097408221164, 0.08449260020455823, -0.09766803560574687, 0.18202431353458695, -0.021214277357103344, 0.06365774397530018, 0.1431941547505509, 0.1828663290993552, -0.0846951087216487, -0.11449413412038754, 0.07535371102091097, 0.15218874235784086, 0.04586048983663732, 0.04320241023131134, -0.13819049229562633, -0.04824343196717451, 0.1420560011399591, -0.018292681459374488, -0.04767807185881046, -0.06573452390323523, -0.024764289419863326, 0.09334043653107761, 0.012440555288992615, 0.12378882228720318, 0.004139700365491297, 0.1168957581676394, -0.09684514742861564, 0.13464074463404388, -0.041341183166564675, 0.05295752542219039, -0.0027223855533509093, 0.21385962871195668, -0.10883404088055676, 0.11435045999353048, -0.074202026443788, -0.05267060410825802, -0.08489553887462704, -0.10643248896820293, 0.10925741435243015, -0.08384549062281631, 0.02024400702387805, 0.10908640269616975, -0.1021033323724261, 0.035473917669499214, 0.011232477434757837, -0.012288631496854186, -0.06049410675078902, -0.13239704602504737, -0.09957791966885256, -0.1744132575592828, -0.07731357454001292, 0.09570015871122094, 0.08465255416400307, -0.06685530687944546, 0.011712210978815136, -0.09353705924306584, -0.1520445708240674, -0.05271776962859605, 0.04756731335497304, -0.09537656664033424, -0.027408149555071214, 0.047673974424466796, -0.12822060786375342, 0.055681914861534565, 0.12759931321580137, -0.13045287063553607, 0.17253041694611956, 0.10769739625749447, -0.13653370708209223, -0.013668626244691819, 0.006641467567342008, 0.05258832010936985, 0.15715580346049277, -0.15456923873753395, -0.039579649211718644, 0.053343806896188624, -0.00971100628063721, -0.1771009899472695, 0.11941509766997042, 0.037969619258151587, 0.07020362461940288, 0.11098733779030921, 0.010630816823310643, -0.0041869126997348275, 0.07399138805541997, -0.07426022857619244, 0.09217506280013854, -0.03539935417896075, 0.0940424201332672, -0.12168500552351506, -0.10298834413766197, -0.1080502084597571, -0.14433153879135413, -0.012681587581145425, 0.1441789896298813, 0.0968630779934514, -0.14331021025905438, -0.1062311314975305, -0.19018386422907924, -0.08960736490314855, 0.08072077637775091, -0.048482835650860936, -0.04109165108717347, -0.0647934514946758, -0.08694368393580673, -0.02627945281010186, 0.0015745449446466807, 0.002113446004020434, -0.1264911048998638, 0.0017427907216720263, -0.006160803939420452, -0.0428839216305001, 0.06457597316059406, -0.05479014075021971, -0.07859705949458376, 0.0005121832144935222, -0.0884536463404326, 0.085112724409936, -0.003389900020020333, -0.04364243596874333, -0.0842287017130932, -0.023322494182249305, -0.07378037400217327, 0.10160341428177277, 0.015723615094375507, 0.05560051829469355, -0.15094629922752137, -0.0443261948078099, -0.12997309992470907, -0.03064883340664778, -0.06286352586565712, -0.031997319660425357, -0.1500634610807148, -0.03621278187157102, 0.1256026098297747, -0.04770068170669589, -0.019800559682114215, -0.13587461965023145, -0.1400982267157113, 0.12282467850653235, 0.034526196504678294, -0.020019536382223837, 0.03536098010293795, 0.06998443922294129, 0.09216789486022745, -0.060428148551934714, -0.12827776592207446, 0.11629524554870609, -0.04158023861695419, 0.1409835729676357, 0.005100859393737706, 0.06769757694338718, 0.08929781399823439, 0.001159624246108517, -0.013202467432431263, -0.11277221563539108, -0.08013084612322689, 0.05296146961004924, 0.16774356469402063, -0.06213715435248734, -0.12809425884551554, 0.0305159735087832, 0.061896276198621515, 0.11145252154011598, -0.09915539241973474, -0.12700497263288443, 0.15964648400017326, -0.03823072440125353, 0.02462059948735055, 0.15058031497981766, -0.13342113879460102, 0.0335939371772499, -0.13669931683945172, -0.05963893312229187, 0.18472667517201666, -0.0895138170425057, 0.0616564046429608, 0.03190263221373337, 0.07335304889982691, -0.09389420897721343, -0.05611929841716452, -0.01941619514837899, -0.06135784078345024, -0.057468678792462737, 0.12238133125186762, 0.09087265303074052, 0.03778381726962934, 0.13135716677665116, -0.12825264645812315, -0.12974266273759757, 0.08761454147380361, -0.04670514786553862, -0.186661442524646, 0.11345787546038118, 0.0824090913427143, 0.0971183793669001, -0.07249075563447316, 0.04178151727559466, 0.030287219250243823, 0.08931727794108493, 0.1786480681624131, 0.11965399451577997, -0.023256018132809645], [-0.182272932494294, 0.1616151789498336, -0.01678716967114266, 0.09122974608410771, -0.17106062168084032, -0.15569816414998047, 0.09636626521001625, 0.05867340507193514, 0.15832223387474992, 0.13089969195557033, 0.00036735012483391785, -0.007713314669055815, 0.1040873960318988, 0.04440719475318484, 0.054511929163418994, -0.13229629275566224, -0.015588496016907087, 0.09762366426779587, 0.0013202398016694359, -0.07799416475282189, -0.05468702730709416, -0.01818171834996209, -0.08842435990733205, -0.04951528557313542, 0.10462359222093692, 0.04963890710022403, -0.1260296697875212, -0.16955796108248722, 0.04344832128888526, 0.04199186466302352, 0.14786670259486784, 0.1390331683409944, 0.10262144641611454, -0.07255065968078647, 0.056783554257113095, -0.029366131567303447, 0.17511096474835522, -0.000543255060378314, -0.09021884551468823, -0.06921445971145017, -0.12027869407743028, 0.09594385938948559, -0.06444313647505427, -0.09886024692280798, -0.18020622047028198, 0.08670815501363098, -0.01078643845562792, 0.07604915438207994, -0.015992706803506302, -0.07814115877980209, -0.21769312143782177, 0.10501928686323758, -0.0878361293047705, -0.02472483286831643, -0.20494668076771208, -0.16208452498735995, -0.19441608463238388, 0.012430129444459306, -0.11464677244553763, 0.06892657669634679, -0.20362850958370662, 0.1029155709470232, -0.03072406019647329, 0.1666552585739603, 0.1442514277256521, -0.04711579495199167, 0.1576909617787926, 0.13120255803345732, 0.025188670517112228, 0.09250581166986677, -0.16807382642789342, 0.08704664771377342, -0.11845414677183981, -0.1682224417756525, 0.1720841058716504, -0.036140427476696386, -0.02442794666564625, 0.031088123154053494, 0.11125512722792114, 0.09437513887135109, -0.0834541396353326, -0.1958008747964002, 0.0026149937819831197, -0.15839131431937886, -0.10203279631841204, -0.07161983633524681, 0.06368847323762959, -0.05985298459786149, -0.1363748188027745, -0.04368202268122263, -0.06695270040653344, -0.280952932663615, -0.014696916028622616, 0.05091444091236261, -0.017361430108958735, -0.14534965974722985, 0.17864764175726724, 0.031980782824246906, -0.10232566822435327, 0.01653643654588455, 0.06075840054509808, 0.1021239296003222, 0.01230267839817476, 0.19788372400395346, 0.1206449139737053, 0.01950482279052236, 0.04983441191073498, -0.018061677231643473, -0.0974659104369498, -0.02526134223096294, 0.03802167988344116, 0.19743546987944943, -0.0832849805276826, 0.033967984284750216, -0.12926730488525714, 0.034896596234516006, 0.2056363716278786, 0.01610742128602031, 0.010400183855701095, 0.10882032087364264, -0.04347043800159808, -0.17039441374891234, -0.04172834435648062, 0.002423681542891416, 0.07388927843004166, -0.08922023431873827, 0.1398664603840331, -0.1071317818503038, -0.017934362459784126, 0.061413633681569935, 0.05645582732942593, 0.08573966252248981, -0.17731112158266005, -0.08971123594339502, 0.08859340940321037, -0.09328975985547505, -0.08927707616520257, 0.003162195464305969, 0.038669116050129314, 0.09795980864013262, 0.049821842518349056, -0.08727735321190036, -0.18583159784957332, 0.1243523898103024, -0.026871140494094198, 0.011498654235382091, 0.0586504140071262, 0.1402045545505811, 0.16187985947790526, -0.08513040513350675, -0.0073142552581397, -0.006723223058535241, -0.06737007555571771, -0.014898680271543483, -0.11634295099746486, 0.10613538826681981, 0.07548452250510479, 0.027922189664187733, -0.03436259404998337, -0.09394277998701514, -0.04453616904342261, -0.033073101610312225, -0.04357878462418978, 0.06365285671813105, 0.12412339084562822, 0.09778615526543476, 0.03445943057015505, -0.115413767232361, 0.0878221313595011, 0.13732942471958365, -0.14900899858000424, 0.018115901610664734, -0.1549983309357273, 0.061032005712573625, 0.14292599688924668, -0.2208287736343371, 0.11777106519114798, 0.02355982836961732, 0.026213202951614754, 0.047349033839930395, 0.09539890347734249, -0.192498736371093, -0.15375097579550215, -0.03390480874350793, 0.10682915001876885, -0.0005497296133584577, 0.07790927790042636, 0.19703066211254386, -0.17480011078407623, -0.027336704108787774, -0.10184038155694715, -0.022160959390881505, -0.16595435706194425, -0.049108889109982026, -0.12888542788020602, -0.09351481500267002, -0.18745697088058036, -0.06595904745039283, 0.17034176739610757, 0.13266407718147671, 0.08755429290603597, -0.09072309445575824, -0.07494412167683663, 0.17574172980990355, -0.044110676374320215, -0.004272231555974732, -0.07064359436650272, -0.14770608126773305, -0.10600673704183798, 0.033153605423843116, -0.053246362399694276, -0.16739487721711038, -0.14157457880996135, 0.08986181656128346, -0.05653172273508457, -0.0015925589894739537, 0.06799984011219745, -0.15570053425418848, -0.23724249740008782, -0.004953348801816191, -0.08948640767272607, 0.0892842355172737, 0.07412948638411362, -0.15786484273279078, 0.00028786728657057367, -0.06521992562113657, -0.1744956468184212, -0.042256447150875315, -0.02259986934770897, -0.02982641824588273, -0.19041576974635707, -0.02030693288984361, -0.14255090508815296, 0.10315586146477446, -0.14841070958537328, 0.050314022331202635, 0.028938254073271826, 0.19394645597331042, 0.028491423367809614, 0.12452979551761396, 0.09690494297442666, 0.11342797186088296, -0.04810928065468618, 0.04724791295886561, 0.10949471813780332, 0.09668813009857466, 0.1125321026528729, -0.01319878061128958, -0.16144075906977773, 0.005546573839436854, -0.029176291343639024, -0.07703303054804554, 0.02389777823242894, 0.1678204863472874, -0.16679948879374423, 0.16887574181718804], [-0.07129408861508217, -0.15883624585623837, -0.01757855322206384, 0.0508813289755088, -0.04186015315840839, -0.0028271518312122153, 0.1570971997796632, -0.06118222134608636, -0.040129582510889106, 0.07016203710561263, 0.06054838822526176, -0.043630357891730934, -0.038527065141017044, 0.010892821780812823, -0.06959803258192286, 0.06174540972371731, -0.08872226053358974, 0.025167876296197756, -0.10727446964995793, -0.07334200853675092, -0.013131967479163448, -0.09911664722093201, 0.1609188541699093, -0.09599983368334138, -0.007349633642703538, 0.14680740436633058, 0.031057279446789928, -0.06082014744216124, -0.08350139336291573, 0.09387234298172653, -0.002564175270525465, -0.1386868387681006, 0.010423612959890744, 0.08565299683042714, 0.06253010937178556, -0.09814529860214107, 0.017032958820966795, -0.05311077021234687, -0.10276873822596422, 0.054842736059309005, -0.05587913704768744, -0.10733893596845517, -0.15337936645117645, 0.1348903884269553, 0.16337780178777345, 0.1006467417407831, 0.1335495752182493, -0.11071765168507981, 0.010084070821912754, -0.009641341783911704, -0.06315695067960235, 0.034893399883407124, 0.14339697508047586, -0.12242643781790691, 0.05222600548005532, 0.026972624427832714, -0.04853414125434226, 0.19829683518733676, -0.03482407424583686, -0.06045474630254419, 0.10251611312764349, -0.118836273829706, -0.04365843133962325, -0.04660383654667281, 0.022473499467652713, 0.06001621483943136, 0.07230656882573737, -0.0225846400566663, 0.11051558394043122, -0.14490593953769831, -0.011672954844415278, -0.1921914244193917, -0.006709557026025422, 0.0026078871151272915, 0.04819866697570687, 0.17030203361309926, 0.02581578363715622, -0.021889090707647475, -0.06904725338507728, -0.10493946552172617, -0.04737878929607688, 0.027555189351043667, 0.08324590332139975, -0.08345874250179167, -0.13672961388319263, -0.06766680867649659, -0.09455124509878325, -0.1023368647716153, 0.08990965968983028, -0.07942883166937385, 0.030598372348606635, -0.10408246587332746, -0.10595802794370804, -0.025495483620463017, 0.10373388314789429, 0.02501078983446534, 0.021227537667949225, -0.1344173175432067, 0.06944103059422432, -0.07366054083043057, 0.13750515876933891, -0.03547472535584349, 0.14249896885832344, -0.06071805904277279, -0.13681774487395232, -0.1774734953435472, 0.15523145089661414, -0.021865200258940596, 0.12067974608928532, -0.036075901140546235, 0.05043249640036198, -0.16065590539727523, 0.08757458198793922, 0.017587229699155164, 0.06963535924711024, -0.06131020887912651, 0.00679337804162913, 0.08299501425814577, 0.019366261030245545, 0.014715401154480444, 0.10163147719274906, 0.13015172514748394, 0.08428671004287204, -0.04920343270016791, -0.07671600167072339, 0.10848710983790434, -0.19297728589782326, 0.019025949777737333, 0.06220153096164169, 0.013702861995682696, 0.10675940013546148, -0.007743503654629205, -0.08806662000920318, -0.11430068761578584, -0.02294873890999712, -0.007520415216383275, -0.027858811809932976, 0.11772663292960278, 0.0996336533349411, -0.08282298597163548, -0.03188844944466237, 0.20982206959933306, -0.11192248788477738, -0.06795083649353152, -0.1126461215565093, 0.0748316729692826, -0.11238729378986587, 0.07476322970468925, -0.06402356107252015, -0.014085439235578302, -0.028976647708263425, -0.0413777340161658, 0.12605933309083947, 0.0755216525952209, -0.0002682644449589715, -0.006058806505263522, 0.18176331962881673, 0.1241313303172568, 0.0484573324731762, -0.15471096397280917, -0.12917767867987254, -0.07449658447333486, 0.023838106569276953, 0.045923889433787494, -0.06644878814357696, 0.17447343482785568, 0.059259037926439564, 0.2047385750550186, -0.0009317406228987172, 0.08446110386707154, -0.11320939870316575, -0.09178931168358302, -0.08882913426390411, -0.047676297734175206, 0.06126042836064121, 0.06304700128043673, -0.1234857406471494, 0.1474186281409174, -0.07131564616122396, -0.11775987512067121, -0.003321753053929817, -0.01041379657554299, -0.029052445621019014, -0.024970686844836068, -0.08374812740603624, -0.17768492524186014, -0.045286651396223676, 0.08777091684410153, -0.044859282173629125, 0.0682036950138005, 0.05719701307498248, 0.11216407140855793, 0.14379293092255957, -0.029848142943622192, 0.12526963850327957, 0.05865046465231927, -0.04682089641772013, -0.07891852962268336, -0.15684998414007706, 0.15751520602525168, 0.1317940787140465, -0.05000239653383488, 0.006559938641071305, -0.032308075321532286, -0.1386845616246462, 0.07090262798697843, -0.11306744886279428, -0.11355705071504016, 0.016215220286326354, 0.0677995051200932, -0.12158501160447441, 0.07776536258054702, -0.025093023676971218, -0.08872535217855151, -0.11080249470547344, -0.00044383923360949434, -0.030856682455507364, 0.09851194575164064, 0.18165264032989362, 0.10561195267014122, -0.05035474794711058, 0.06332404766275468, -0.09522213344544427, -0.05690078562381136, -0.09326596506599241, -0.092549487166418, 0.10058075254493731, 0.05473720741411099, -0.09958754765074747, 0.07960908096029548, -0.05361855800131701, 0.01700503090019113, -0.016951080897181014, 0.09442036215531217, 0.10832186991465098, -0.13747362052097514, -0.17359596901622587, -0.09485837990149093, 0.13893507598418775, -0.08224171375037943, -0.011530829641404405, -0.05738571920475766, 0.03264941263392773, 0.015767427402911125, 0.08150779573067748, -0.06937391263921276, -0.06911225986510143, 0.10072639412353918, 0.09268012417802253, -0.12037303806366807, -0.06979247308308886, 0.04446504162829588, 0.0608357007289991, -0.17666196202041495, 0.1461769687992268, 0.02081651561598048], [0.007580579224115913, -0.1526056552232593, -0.007448675693718399, -0.0773595346937342, -0.055886513643420274, 0.05076122063752328, 0.18967054216812967, -0.03018226896364106, 0.05447741194526729, -0.1550733686296671, -0.030635241814173212, -0.14500134392126088, 0.06926026612094727, 0.11765219647819185, 0.042327227844907875, -0.11171987572931528, 0.07669739812692027, 0.0708520110288632, -0.02872936283577199, 0.09572462376821525, 0.012190203026742183, 0.012539770060472197, -0.014844686741419557, -0.03922919177279806, -0.09714697581480843, 0.015715648640864204, -0.020330856356483507, 0.01928420197705891, 0.0856386383225158, -0.05958982371309353, -0.004339133229127932, -0.09594537240294403, -0.1717140095679204, 0.09855905195028875, -0.07827488008087177, 0.011818764380367833, -0.002780842498938186, 0.018815046980589004, -0.011735672761656388, -0.10969805252218345, -0.02684376279288234, 0.0546414745257729, 0.09340121846011999, -0.0882087699869048, 0.06794876310683011, 0.107127108862917, 0.04072206083488849, 0.03288200444378174, 0.10492757049656933, -0.04494332413091279, 0.06378121882903581, 0.02075404683605981, 0.014920377120599113, -0.06592900102468562, 0.03311978624295483, 0.08410928421407732, -0.0768421198615373, 0.09569595920063165, 0.041976125762632994, 0.11864432680922449, -0.02861562510766218, -0.08295531089322401, 0.08749092529601486, -0.09157901484867552, 0.11599485004504421, -0.034792365260450986, 0.05288354649613432, -0.05018428220679441, -0.026172051446917866, -0.041379441140120536, -0.11297477863720815, -0.08375412765508032, -0.1090588913366911, 0.16087329764113525, 0.13198823631846232, -0.03205094336138674, 0.11769088420344333, -0.04895526607328091, 0.11550537948683395, 0.13607633375679123, 0.07305790790927999, 0.04969439935572679, 0.07953904124358309, -0.101970560018901, 0.13805125319354203, -0.11959391522558853, -0.035244338281501655, 0.04879275263176284, 0.02063554994769436, -0.10135464148104721, 0.12429144599382021, -0.027243342637655085, 0.030504286347230097, -0.040238866464816336, -0.037034438147316245, 0.03264364125021974, -0.03861054117590825, -0.13210813851122089, -0.04460125212134207, 0.009437604080115996, 0.06860372144615985, 0.143733532169587, -0.08783501815773942, -0.019843158146365763, -0.09648818551009332, -0.1959578298934759, 0.04177829936362954, 0.07153284521612073, -0.11144275635954501, -0.030234639455124123, -0.13617702649549307, 0.0903050718499068, 0.14645673082678554, -0.07514186516036274, -0.13736038397188285, 0.033281980747537625, 0.10203991221385265, 7.91818824675037e-05, -0.17109940626736506, -0.0699790632892258, 0.05860021455944432, -0.08225469848349953, -0.09760240188661261, 0.022718513445179805, -0.13918360306309518, 0.09292723258863654, 0.004172044409675851, -0.07578057570327607, -0.010002388634354514, -0.010262576502945096, 0.14220246238193, 0.04232491085925425, -0.04964624695642599, 0.026782617210730327, -0.02588104553245423, 0.07626794484872963, -0.029934700969741452, 0.013685470630820123, -0.06779905303082413, -0.022852728809935368, 0.13406590504915636, 0.08324883282666094, -0.03340512137619421, -0.0749080002179691, 0.09890042653839569, 0.09592639636346754, -0.07827236395940253, 0.028093860849127954, -0.005959216873456639, 0.14524081439114792, -0.06901109655078375, -0.13013882355349085, 0.032495655189335906, -0.11321063174460057, -0.047163700360416214, -0.023123082065108873, -0.022534959331868047, -0.06675279453881798, 0.05265030096726459, -0.06649383003617038, 0.018551257389276057, 0.0865539753900815, 0.05361599570922653, -0.10086329741933003, -0.08044953224925493, -0.06425603779971265, -0.08712568287699106, -0.0646609699558966, 0.020439148061042953, -0.13084586399498202, -0.139244535575667, -0.048411364969973746, 0.07761709364212059, -0.08212349161605245, 0.10678317191913822, -0.0674700049430411, 0.1286026515999403, 0.0870421057332108, -0.07026221716060083, -0.13750775687911893, -0.11854891773388321, -0.04696025110058709, 0.03062867047242401, 0.027506279777456667, -0.008714856658311006, 0.09109563340296954, -0.05165047284252908, -0.13331385002133128, 0.02052400291291853, -0.03462021160678389, 0.10680903287385649, -0.04646812999526365, -0.11570267811035619, 0.20596357868016799, -0.09470261584807553, 0.1117239966017729, 0.19579681553158945, 0.1089136795759435, 0.003433516679090109, 0.0008396564796910507, 0.09313231360343947, -0.015236315585346587, -0.03220725853836465, -0.016386824276289843, 0.043855416170189114, 0.006719160384711568, -0.016056513014178587, -0.006831814001541191, 0.059441228310072106, -0.11912823049001886, 0.10172912203163938, 0.08015011153617412, 0.11046864874956784, 0.009442768472315195, 0.134742686787564, -0.18100836596189912, 0.09736669666807068, -0.12446831336495068, 0.029931719483289005, 0.0970832636015977, -0.02140488111226681, -0.06265215108106345, 0.08332175717296768, -0.08577303867858975, 0.1267805917455187, -0.09875723461358507, -0.021453722545618767, 0.11661441155203632, -0.006481578532826243, 0.04715005967302722, -0.0673559354617606, 0.054718867457550495, 0.005885980794238856, -0.005150364570541591, 0.03937069606695529, 0.0244529907025359, -0.022514144865928853, -0.0696977239376267, 0.08423438282789554, -0.1349110234012992, 0.10477900088664244, -0.09059320219093298, 0.04724290307236048, 0.11605997550097537, -0.09215886742310933, -0.17194444178236437, -0.019663409981403267, 0.10111977890355478, 0.09175471877807392, -0.1326401656460749, 0.11374119330778087, -0.11029452599422929, 0.007065140961759314, 0.08435749251680412, -0.035364653988132884, -0.004230181606363073], [-0.20615353982106263, -0.24894293836779763, -0.08614036609997446, -0.09667352956108995, 0.0575531444733209, 0.005906037678858194, 0.03406710117424436, -0.09348098990013627, -0.06619229772617635, 0.04047432015516995, 0.16253849282529112, -0.19016683953585306, 0.14191213220906357, 0.0911164468835918, 0.02200284071889989, 0.010761383596349284, -0.0602144980871264, -0.11557784932444351, 0.0379025818312711, -0.10980299525450991, 0.1804406363957977, -0.026109944262401513, -0.04911864611367385, 0.07376290212313112, -0.11667602398601776, -0.06534899289478459, 0.04661904343556243, 0.06581899574558203, 0.0646286681494769, 0.02446262322392967, 0.07588491925979665, 0.11994837584912645, -0.11081451022112221, -0.22535476437609456, 0.03628772032363777, -0.10167990416364024, -0.04788382570875463, 0.02486162016654694, 0.09159242137285611, -0.17689989984219373, 0.04636051844526599, -0.11509915430417726, -0.005961768515279267, -0.08806645672048612, -0.14393312439302253, -0.2705232061937507, -0.10555992405683766, 0.034657010399704105, 0.14531564507876135, -0.09008360805165852, -0.1270864936467763, -0.013163169029630065, 0.04186945420809335, 0.075357633179223, -0.02561697176644521, -0.2101736106886888, 0.04408157952022102, -0.11120973657423719, -0.1218326153301615, -0.14571619218184165, -0.019850932712247745, 0.051063124392809446, 0.11907562764626171, -0.02445203960965014, -0.03641541976209953, -0.16450139440559014, 0.024251003758428768, 0.03589643421616261, 0.05363971505048416, -0.06987279028287358, -0.03166064833517096, -0.21559037156748778, -0.01992900039172428, -0.05611601024035913, -0.0882774776197188, 0.15369357644483336, -0.07083634865742981, -0.03462313751861248, 0.13824296966930008, 0.254118041221795, -0.01286984281507917, 0.14834017339509198, -0.12605240657824715, -0.05254390899602854, -0.01912223470109704, -0.027044594353741118, -0.06353931174459243, 0.029367775631400403, -0.15739692697995317, 0.09966504584258355, -0.13859734942637444, 0.08865518216520647, 0.04397186201443151, -0.05511610138969343, -0.004661841848674602, 0.14825438897840934, -0.035212851787397026, 0.010588927961650025, 0.02752682599544085, -0.108623918354705, -0.17604005470673473, -0.12667309767948312, 0.003951878455276873, -0.013640334645274907, 0.09994866161212707, -0.06470022390042646, -0.07560571689680402, 0.18636791965035915, -0.16818580205828762, -0.07993909125266459, 0.02682478512351198, -0.026983679431419657, -0.16406865958830463, -0.1716539698349484, -0.13173462780361112, -0.042686834774603354, 0.004637994677829046, -0.10751017411714042, 0.05272682591786488, 0.06748398916557206, -0.12940990549909254, 0.040105425164919474, 0.05160502060296199, -0.09394320960528633, -0.042487404304260734, 0.017816057444657595, 0.05557088442643221, 0.07807077434976413, 0.05738875241381692, -0.016350671169746468, -0.03691058838020258, 0.0641742858971058, -0.07754629186421232, -0.09722799529939502, 0.07264825990580416, 0.014847927029074991, -0.027036121169288004, 0.06994564048163344, -0.10019310865017884, -0.06879979067935511, -0.12950331355667383, 0.023306927081637636, 0.047878242402996166, -0.029565199176729166, 0.1076436759752867, -0.10689456675858872, 0.12697133580058917, -0.05979446857040011, -0.04394764433404325, 0.04532633420428461, -0.14653951091585316, -0.1507477512112169, 0.052707965438539284, 0.12020790856240227, 0.02501881901657808, -0.16143524385746794, -0.09620310469238727, -0.05701797383530361, -0.1660438469420025, 0.015499613095908723, 0.12773257182261638, 0.00889001525072093, -0.05727699664245157, -0.011511597800318199, -0.07177778718690865, 0.0927835210687798, -0.09073922233191672, -0.071454861565674, 0.01573626681570617, -0.0721082232268371, -0.05910614391168325, -0.1615499644911152, 0.0017945026320545568, 0.06515435689020188, -0.026810703347578256, 0.004989423458117532, -0.1150267433738021, 0.04620256734863029, 0.029330246892354604, -0.01659751002417947, 0.007895690916477799, -0.01640402374665492, -0.17925084675255487, -0.05149334074197469, -0.14977832159634158, 0.0994271854083479, -0.18017192005048333, -0.15303037697689098, -0.0252414660427022, -0.01004881552415578, 0.015007200084097243, 0.04587244596471007, -0.12681096034855444, 0.0632039497935607, 0.05884247193176573, -0.15511537906344366, 0.05026631000420833, 0.12682697779458374, -0.07342898702437203, -0.0358254987001193, -0.09607872638459283, -0.13296857716083116, -0.06937777267870868, -0.03267879452744642, -0.055062284942275455, 0.08442438161169379, 0.03735876165100201, -0.021547067783393277, 0.04473085886012989, -0.14823557543627722, -0.020104465322478206, 0.057419332996905534, 0.06720759069977704, 0.03478097935247331, -0.059111793170535956, 0.09645305822139132, -0.16467538987526903, 0.06732399091490457, 0.15722253903757707, -0.1256658470547605, 0.11397981250046095, -0.12030945296536158, 